
\data\
ngram 1=5192
ngram 2=8620
ngram 3=8475

\1-grams:
-1.011162	</s>
-99	<s>	-3.354603
-3.280442	aa	-1.287917
-3.979412	aa-aa	-0.5163717
-3.979412	aa-c0ii-rraang-ii-nnxxnf	-0.5164173
-3.377352	aa-c0iikf	-1.139299
-3.50229	aa-c0iikf-t0oo	-0.9760366
-3.50229	aa-c0uu	-0.9757175
-3.979412	aa-c0uu-mmvv-nnii-ee-k0ee	-0.5163262
-3.50229	aa-c0uu-mmvv-nnii-k0aa	-0.9316287
-3.979412	aa-c0uu-mmvv-nnii-kkee	-0.5165539
-3.678382	aa-c0uu-mmvv-nnii-nnxxnf	-0.7817861
-3.678382	aa-c0uu-mmvv-nnii-t0xxll	-0.7815356
-3.979412	aa-c0uu-mmvv-nnii-t0xxll-ii	-0.5165539
-3.979412	aa-c0uu-mmvv-nnii-t0xxll-xxnf	-0.5165539
-3.377352	aa-c0vv-ssii	-1.09472
-3.50229	aa-c0vv-ssii-k0aa	-0.9760821
-3.280442	aa-c0vv-ssii-nnxxnf	-1.288112
-3.979412	aa-c0vv-ssii-t0xxll-t0oo	-0.5165539
-3.979412	aa-c0vv-ssii-wa	-0.5160983
-3.979412	aa-cciill-hhqqss-t0aa	-0.4720647
-3.979412	aa-chiimf	-0.5164173
-3.979412	aa-chiimf-c0vv-nnyvkf-xx-rroo	-0.5164629
-3.979412	aa-chiimf-ee	-0.5165084
-3.678382	aa-hhoopf	-0.781695
-3.678382	aa-ii	-0.7816039
-3.979412	aa-ii-k0uu	-0.5165539
-3.280442	aa-ii-nnxxnf	-1.288067
-3.377352	aa-ii-rrxxll	-1.136189
-3.50229	aa-ii-t0xxll	-0.9318422
-3.979412	aa-ii-t0xxll-ee-k0ee	-0.5164629
-3.377352	aa-ii-t0xxll-ii	-1.139299
-3.979412	aa-ii-t0xxll-ii-t0aa	-0.4720647
-3.979412	aa-ii-t0xxll-k0wa	-0.5160983
-3.50229	aa-ii-t0xxll-xi	-0.9760821
-2.865469	aa-ii-t0xxll-xxnf	-1.506223
-3.979412	aa-k0aa-ssii-t0oo	-0.5165084
-3.979412	aa-k0aa-ssii-wa	-0.5160983
-3.678382	aa-k0ii-rrxxll	-0.781462
-3.979412	aa-khaa-s0ii-aa-kkooch-ii	-0.5165539
-3.678382	aa-kkaa-p0uu-thvv	-0.7809198
-3.979412	aa-kkaa-wv-s0vv-yvss-t0aa	-0.4720647
-3.678382	aa-mmuu	-0.7817861
-3.678382	aa-mmuu-k0qq-nnxxnf	-0.7817861
-3.678382	aa-mmuu-k0vvs0-t0oo	-0.7816039
-3.134314	aa-mmuu-rrii	-1.582034
-3.678382	aa-mmuu-rrqq-t0oo	-0.7811936
-3.979412	aa-mmuu-rrvvhh-k0ee-nnaa	-0.5165539
-3.979412	aa-mmuu-t0oo	-0.5161895
-3.979412	aa-mmuu-thxxnf	-0.5164629
-3.979412	aa-mmuu-xi	-0.5165539
-3.979412	aa-nnee	-0.4720647
-3.979412	aa-nnii-hhqq-t0oo	-0.5165539
-3.377352	aa-nnii-k0oo	-1.139117
-3.979412	aa-nnii-k0vv-t0xxnf	-0.4720647
-3.678382	aa-nnii-mmyvnf	-0.781695
-3.979412	aa-nnii-nnii	-0.4720647
-3.201261	aa-nnii-rraa	-1.432494
-3.979412	aa-nnii-rraa-k0oo	-0.5164629
-3.678382	aa-nnii-rraanf	-0.7814164
-3.201261	aa-nnii-t0aa	-1.069409
-3.979412	aa-nnii-uu	-0.4720647
-3.377352	aa-nnii-vvss-t0aa	-0.9097078
-3.979412	aa-nnii-ya	-0.4720647
-3.979412	aa-nnii-yo	-0.4720647
-3.678382	aa-nniill	-0.7797316
-3.280442	aa-nniinf	-1.28665
-3.979412	aa-nniinf-k0aa	-0.4720647
-3.979412	aa-nniipf-nnii-t0aa	-0.4720647
-3.979412	aa-nnqq-k0aa	-0.5165084
-3.979412	aa-nnqq-nnxxnf	-0.5165539
-3.979412	aa-nnqq-rroo	-0.5165539
-3.979412	aa-nnqq-xi	-0.5165539
-3.979412	aa-nnxxnf	-0.5165084
-3.979412	aa-nnxxnf-c0ii	-0.5165539
-3.979412	aa-p0ii	-0.5165539
-3.979412	aa-phxxmf-k0wa	-0.5165539
-3.979412	aa-rraang-k0oos0-hhaa-c0ii	-0.5162806
-3.678382	aa-rrqq	-0.7817406
-3.979412	aa-rrqq-ccookf	-0.5164173
-3.979412	aa-rrqq-ccookf-ee-s0vv-nnxxnf	-0.5165539
-3.678382	aa-rrqq-ee-s0vv-nnxxnf	-0.7817861
-3.979412	aa-rrqq-phyvnf-xx-rroo	-0.5140418
-3.979412	aa-rrqq-rroo	-0.516235
-3.979412	aa-rrqq-thvvkf-ii	-0.5165539
-3.979412	aa-rrxxmf-t0aa-uumf-ii	-0.5165539
-3.979412	aa-rrxxmf-t0aa-uumf-ii-rraanf	-0.5165539
-3.979412	aa-rrxxmf-t0aa-uumf-mmaanf-xxll	-0.5165539
-3.979412	aa-rrxxmf-t0aa-uumf-xx-rroo	-0.5165539
-3.280442	aa-rrxxmf-t0aa-uumf-xxnf	-1.288477
-3.076322	aa-rrxxmf-t0aa-uunf	-1.74553
-3.979412	aa-rrxxmf-t0aa-wvss-vv-yo	-0.4720647
-3.50229	aa-rrxxmf-t0aapf-k0ee	-0.9761277
-3.50229	aa-rrxxmf-t0aapf-k0oo	-0.9758999
-3.979412	aa-rrxxmf-t0aapf-k0vv-nnaa	-0.5164173
-3.979412	aa-rrxxmf-t0aapf-t0aa-nnxxnf	-0.5155509
-3.979412	aa-t0xxkf-hhii	-0.5165539
-3.979412	aa-t0xxll	-0.5165539
-3.678382	aa-t0xxll-ii	-0.7814672
-3.678382	aa-ye	-0.7815127
-3.979412	aakf-k0ii-rraa-k0oo	-0.5164629
-3.678382	aalh-t0aa-k0aa	-0.7816495
-3.377352	aall	-1.137737
-3.979412	aall-aa	-0.5165084
-3.979412	aall-aa-p0ooll	-0.5147741
-3.979412	aall-aass-t0vv-nnii	-0.4720647
-3.678382	aall-aass-t0vvnf	-0.7813304
-3.979412	aall-aass-vv-yo	-0.4720647
-3.979412	aall-aass-xx-mmyvnf	-0.5165539
-3.50229	aall-k0ee	-0.9755834
-3.979412	aall-mmaac0-xxnf	-0.5155509
-3.979412	aall-mmoomf-ii	-0.5161895
-3.979412	aall-mmoomf-xx-rroo	-0.5165539
-3.979412	aall-rryv-c0uu-k0oo	-0.5164629
-3.979412	aall-rryv-c0uu-mmyvnf	-0.5159615
-3.979412	aall-rryv-c0yv	-0.5155052
-3.979412	aamf-nnoomf-xxll	-0.5161439
-3.979412	aamf-s0qqmf-xxll	-0.5165084
-2.865469	aanc-aa	-1.500566
-3.678382	aanc-aa-s0vv	-0.7798689
-3.979412	aanc-xx-mmyvnf	-0.5164629
-2.833284	aanf	-1.579173
-3.979412	aanf-aa	-0.5164629
-3.979412	aanf-c0aang-t0oo	-0.5165539
-3.979412	aanf-c0vvll-p0uu-c0vvll-mmoos0-hhaa-mmyv	-0.5163717
-3.979412	aanf-c0vvnf	-0.5165539
-3.50229	aanf-ee	-0.9757631
-3.678382	aanf-ee-s0vv	-0.7816039
-3.979412	aanf-k0ii-k0ii-mmaanf	-0.5160071
-3.377352	aanf-k0oo	-1.137472
-3.979412	aanf-k0qq-k0aa	-0.5165539
-3.979412	aanf-k0yvng	-0.5165539
-3.979412	aanf-nnyvng-hhaa-s0ee-yo	-0.5164173
-3.979412	aanf-nnyvng-hhaa-s0yvss-vv-yo	-0.4720647
-3.979412	aanf-nnyvng-hhii	-0.5165539
-3.979412	aanf-p0uu-t0oo	-0.5165539
-3.979412	aanf-s0iimf-s0ii-khiinf	-0.5165084
-3.979412	aanf-s0vvng-k0uunf	-0.5165539
-3.979412	aanf-thaa-kkaa-wa	-0.5165084
-3.979412	aanf-xxll	-0.5163262
-3.979412	aang-khaall-c0iinf	-0.5164629
-3.979412	aanh-aass-k0eess-c0ii	-0.4720647
-3.979412	aanh-aass-nnxx-nnya-ee	-0.5165539
-3.201261	aanh-aass-s0xxpf-nnii-t0aa	-1.069409
-3.025169	aanh-aass-t0aa	-1.234219
-3.979412	aanh-aass-t0aa-nnxxnf	-0.5164173
-3.678382	aanh-aass-vv-yo	-0.7370183
-3.979412	aanh-aass-xxll-kkaa	-0.5147741
-3.50229	aanh-k0ee	-0.9761277
-3.979412	aanh-k0eess-t0aa-k0oo	-0.5165539
-3.134314	aanh-k0oo	-1.582581
-3.979412	aanh-k0oo-nnxxnf	-0.5165539
-3.979412	aanh-nnxx-nnya	-0.4720647
-3.025169	aanh-nnxxnf	-1.939088
-2.979412	aanh-nnxxnf-t0aa	-1.277684
-3.979412	aanh-nnxxnf-t0ee	-0.5165084
-3.678382	aanh-s0xxpf-nnii-t0aa	-0.7370183
-3.678382	aanh-t0aa	-0.7370183
-3.979412	aanh-t0vvnf	-0.5160983
-3.280442	aanh-xx-mmyvnf	-1.287639
-3.979412	aanh-xx-mmyvnf-s0vv-t0oo	-0.5165539
-3.678382	aanh-xx-nnii	-0.7813304
-3.979412	aanh-xx-s0iipf-nnii-t0aa	-0.4720647
-3.678382	aanh-xxll	-0.7812341
-3.280442	aanh-xxnf	-1.288249
-3.979412	aanh-xxnf-k0aa	-0.4720647
-3.678382	aapf-chuukf-t0wo-k0oo	-0.7817861
-3.979412	aapf-chuukf-t0wo-vv	-0.5149342
-3.80332	aaph	-0.6414698
-3.166498	aaph-ee	-1.464176
-3.979412	aaph-ee-nnxxnf	-0.5165539
-3.979412	aaph-ee-s0vv	-0.5140418
-3.678382	aaph-s0ee-uu-k0oo	-0.7816495
-3.979412	aaph-t0wi-rroo	-0.5165539
-3.678382	aaph-xxll	-0.7817861
-3.678382	c0aa	-0.7805774
-3.979412	c0aa-c0uu	-0.5165539
-3.134314	c0aa-k0ii	-1.582034
-3.979412	c0aa-k0ii-p0oo-t0aa	-0.5155509
-3.979412	c0aa-k0ii-t0oo	-0.5164629
-3.678382	c0aa-k0ii-xi	-0.781148
-3.979412	c0aa-k0oo	-0.5165539
-3.678382	c0aa-kkuu	-0.7817406
-3.377352	c0aa-kkuu-mmaanf	-1.138524
-3.979412	c0aa-mmyvng-c0oong-ii-mmyv	-0.5165539
-3.979412	c0aa-nnxxnf	-0.5162806
-3.979412	c0aa-rraa-ee-k0ee	-0.5163717
-3.979412	c0aa-rraa-hhaanf-thee	-0.5165539
-3.979412	c0aa-rraa-iipf-nnii-t0aa	-0.4720647
-3.979412	c0aa-rraa-k0aa	-0.5165539
-3.979412	c0aa-rraa-nnaa-k0ii-nnxxnf	-0.5165539
-3.201261	c0aa-rraa-nnxxnf	-1.433247
-3.50229	c0aa-rraa-rrxxll	-0.9756719
-3.979412	c0aa-rraa-s0vv-nnxxnf	-0.5165084
-3.979412	c0aa-rraa-t0oo-rrookf	-0.5165539
-3.979412	c0aa-rraa-wa	-0.5160983
-3.201261	c0aa-rraa-xi	-1.432961
-3.678382	c0aa-rraa-ya	-0.7808743
-3.979412	c0aa-rraang-hhaa-nnxxnf	-0.5163262
-3.979412	c0aa-rrii-c0aapf-nnxxnf	-0.516235
-3.377352	c0aa-rrii-ee	-1.139436
-3.979412	c0aa-rrii-ee-nnxxnf	-0.5165539
-3.979412	c0aa-rrii-nnxxnf	-0.5164173
-3.979412	c0aa-rrii-rrxxll	-0.5165539
-3.979412	c0aa-s0ee-hhii	-0.5165539
-3.979412	c0aa-s0iikf	-0.5165539
-3.979412	c0aa-s0iikf-s0qq-kkii-t0xxll	-0.5165539
-3.979412	c0aa-s0iikf-t0xxll	-0.5147741
-3.979412	c0aa-s0iinf-iill	-0.5162806
-3.979412	c0aa-yu-s0xx-rrvvnf	-0.5165539
-3.979412	c0aa-yvnf-ii	-0.5161895
-3.979412	c0aa-yvnf-k0wa	-0.5165084
-3.979412	c0aa-yvnf-s0xx-rrvvpf-k0ee	-0.5165539
-3.979412	c0aa-yvnf-xxll	-0.5162806
-3.979412	c0aakf-c0vvng-ii-vvss-nnuu	-0.5147741
-3.979412	c0aakf-k0aa-t0xxll-ee	-0.5165084
-3.979412	c0aakf-k0aa-t0xxll-xi	-0.5165539
-3.979412	c0aakf-k0aa-t0xxll-xxnf	-0.5160983
-3.979412	c0aakf-k0aa-xi	-0.5165539
-3.979412	c0aakf-phuumf-ii-t0aa	-0.4720647
-3.979412	c0aakf-vvpf-xxll	-0.5147741
-3.979412	c0aakf-xx-s0iinf-c0ii	-0.5165084
-3.678382	c0aakf-xxnf	-0.7817406
-3.979412	c0aakf-xxnf-p0uukf	-0.5160071
-3.979412	c0aakf-yong-ii-t0aa	-0.4720647
-2.748963	c0aall	-1.834872
-3.979412	c0aall-hhaa-nnxxnf	-0.5164629
-3.678382	c0aall-rraa	-0.7817861
-3.979412	c0aall-rraa-c0yv	-0.5165539
-3.979412	c0aall-rruukf	-0.5165539
-3.979412	c0aamf-c0aa-k0oo	-0.5160071
-3.979412	c0aamf-c0aa-khoo	-0.5163717
-3.979412	c0aamf-c0aa-nnxxnf	-0.5165539
-3.979412	c0aamf-k0iill	-0.5163717
-3.979412	c0aamf-k0xx-k0oo	-0.5164629
-3.979412	c0aamf-kkaanf	-0.5165539
-3.50229	c0aamf-s0ii	-0.9754439
-3.979412	c0aamf-t0xx-nnxxnf	-0.5165539
-3.979412	c0aanf	-0.5165539
-3.678382	c0aanf-c0aanf-hhaanf	-0.7817406
-3.979412	c0aanf-chii	-0.5165539
-3.678382	c0aanf-t0ii	-0.7817861
-3.979412	c0aanf-t0ii-ee	-0.5164629
-3.678382	c0aanf-t0ii-k0aa	-0.781695
-3.979412	c0aanf-t0ii-p0aath-ee	-0.5164629
-3.979412	c0aanf-t0ii-rrxxll	-0.5165539
-3.979412	c0aanf-ttxxkf	-0.5165539
-3.979412	c0aanf-xxll	-0.5135835
-3.979412	c0aang-chii-rrxxll	-0.5165539
-3.979412	c0aang-ee-s0vv	-0.5165539
-3.979412	c0aang-ii	-0.5165539
-3.979412	c0aang-ii-rraanf	-0.5165539
-3.979412	c0aang-k0ii-phaanf-t0oo	-0.5165539
-3.979412	c0aang-mmaa-chvvll-ee-nnxxnf	-0.5165539
-3.979412	c0aang-mmaa-chvvll-ii	-0.5161895
-3.979412	c0aang-nnaall	-0.5165539
-3.678382	c0aang-nnaanf-ii	-0.7817861
-3.979412	c0aang-nnaanf-ii-c0ii	-0.5165539
-3.979412	c0aang-nnaanf-k0aamf-t0xxll	-0.5165539
-3.979412	c0aang-nnaanf-k0ii	-0.5164629
-3.979412	c0aang-nnaanf-kkuunf	-0.5165539
-3.979412	c0aang-nnaanf-t0oo	-0.5165539
-3.979412	c0aang-phaanf-xxll	-0.5165539
-3.678382	c0aang-phaanf-xxnf	-0.7813304
-3.979412	c0aang-rrxx	-0.5165084
-3.979412	c0aang-s0aa-k0aa	-0.5162806
-3.979412	c0aang-s0aa-rraanf	-0.5165539
-3.979412	c0aang-s0aa-rrxxll	-0.5161439
-3.979412	c0aang-s0oo-rraa	-0.5165539
-3.979412	c0aang-t0ooll-p0qqng-ii	-0.5165539
-3.979412	c0aang-ttaanf-c0ii	-0.5160071
-3.979412	c0aang-xx-rroo	-0.5165539
-3.979412	c0aang-xxll	-0.5165539
-3.377352	c0aapf-aa	-1.139527
-3.979412	c0aapf-aa-mmvvkf-hhii-s0yvss-k0ii	-0.5165539
-3.979412	c0aapf-aa-mmvvkf-vv-ya-k0eess-t0aa	-0.4720647
-3.979412	c0aapf-aa-mmvvkf-xxnf	-0.5165539
-3.979412	c0aapf-aa-oo-nnvv-rraa	-0.4720647
-3.979412	c0aapf-aa-s0vv	-0.5165539
-3.979412	c0aapf-aa-t0aa-k0aa	-0.5165539
-3.979412	c0aapf-c0aa-nnxxnf	-0.516235
-3.979412	c0aapf-choo-wa	-0.5165539
-3.979412	c0aapf-hhiill	-0.5158246
-3.979412	c0aapf-hhyv-mmvvkf-xxll-c0ii-t0oo	-0.5165539
-3.979412	c0aapf-k0oo	-0.5152768
-3.979412	c0aapf-mmookf-k0wa	-0.5165539
-3.678382	c0aapf-s0uu-s0ii-k0oo	-0.7817861
-3.979412	c0aapf-xxll	-0.5161439
-3.678382	c0ee	-0.7816495
-3.979412	c0ee-c0aa-rrii-ee-s0vv	-0.5165539
-3.979412	c0ee-c0aa-rrii-rroo	-0.5165539
-3.678382	c0ee-iill	-0.7810112
-3.377352	c0ee-k0aa	-1.138889
-3.979412	c0ee-k0aakf-k0ii	-0.5164629
-3.979412	c0ee-k0wa-c0vvmf-ee-rrxxll	-0.5165539
-3.678382	c0ee-mmvvs0-t0qq-rroo	-0.7817406
-3.377352	c0ee-p0vvpf	-1.139482
-3.979412	c0ee-s0ii-hhaa-k0oo-c0aa	-0.5140418
-3.678382	c0ee-t0qq-rroo	-0.7816039
-3.678382	c0ii	-0.7815127
-3.50229	c0ii-c0vv-k0wi-k0oo	-0.9757631
-3.979412	c0ii-c0vv-k0wi-mmyv	-0.5165539
-3.979412	c0ii-chii-k0oo	-0.5165084
-3.678382	c0ii-chiinf	-0.7817861
-3.979412	c0ii-chiipf-nnii-t0aa	-0.4720647
-3.979412	c0ii-chvvnf-xx-rroo	-0.5164629
-3.678382	c0ii-chyv	-0.7815127
-3.979412	c0ii-chyvss-s0xxpf-nnii-t0aa	-0.4720647
-3.979412	c0ii-hhaa-chvvll	-0.5165539
-3.979412	c0ii-hhaa-t0oo	-0.5140418
-3.979412	c0ii-hhaa-t0oo-ee-nnxxnf	-0.516235
-3.979412	c0ii-hhaa-t0oo-ee-s0vv	-0.5165084
-3.979412	c0ii-hhaa-t0oo-rrxxll	-0.5165539
-3.979412	c0ii-hhyang-c0vvmf-xxll	-0.5165539
-3.979412	c0ii-hhye-rrxxll	-0.5165539
-3.979412	c0ii-hhye-t0aa	-0.4720647
-3.979412	c0ii-hhye-t0oo	-0.5159159
-3.979412	c0ii-k0aapf-ii	-0.5159615
-3.979412	c0ii-k0oo	-0.5165539
-3.979412	c0ii-k0vv-nnaa	-0.5165539
-3.979412	c0ii-k0xxmf	-0.5165539
-3.50229	c0ii-k0xxmf-kkaa-c0ii	-0.9757175
-3.678382	c0ii-k0xxmf-t0oo	-0.781148
-3.979412	c0ii-k0xxmf-xi	-0.5165539
-3.979412	c0ii-k0xxmf-xxnf	-0.5163262
-3.979412	c0ii-k0yvng-ii	-0.5163262
-3.979412	c0ii-k0yvng-ii-t0aa	-0.4720647
-3.979412	c0ii-k0yvng-ii-vvss-t0aa-mmyvnf	-0.5135835
-3.979412	c0ii-k0yvpf-t0oo-rrookf	-0.5165539
-3.979412	c0ii-khii-s0yv-ya	-0.5160527
-3.979412	c0ii-khyv-p0oo-mmyv	-0.5165539
-3.979412	c0ii-khyvss-vv-ya	-0.5157334
-3.979412	c0ii-kkvvll-yvss-t0aa	-0.4720647
-3.979412	c0ii-mmyvnf	-0.5165539
-3.678382	c0ii-nnaa-c0ii	-0.7810112
-3.979412	c0ii-nnaa-chii-mmyvnf-s0vv	-0.5163262
-3.678382	c0ii-nnaa-chii-nnxxnf	-0.7810974
-3.979412	c0ii-nnaa-k0aa-k0oo	-0.5165084
-3.979412	c0ii-nnaa-k0aa-mmyv	-0.5165084
-3.280442	c0ii-nnaa-k0aa-nnxxnf	-1.288067
-3.678382	c0ii-nnaa-k0aa-t0aa	-0.7817861
-3.979412	c0ii-nnaa-nnxxnf	-0.5165084
-3.979412	c0ii-nnaa-s0vv	-0.5165539
-3.979412	c0ii-nnaanf	-0.5165539
-3.979412	c0ii-nnaanf-hhqq	-0.5165539
-3.979412	c0ii-nnaass-c0ii-mmaanf	-0.5162806
-3.678382	c0ii-nnaass-t0aa-k0oo	-0.7814164
-3.979412	c0ii-nniinf	-0.5165539
-3.979412	c0ii-nnqq-k0oo	-0.5163717
-3.979412	c0ii-nnqq-oonf	-0.5165539
-3.979412	c0ii-p0uung	-0.5165539
-3.979412	c0ii-phyvss-t0aa	-0.4720647
-3.979412	c0ii-rruu-hhaa-k0oo	-0.5165539
-3.979412	c0ii-s0ee-yo	-0.4720647
-3.50229	c0ii-s0iikf	-0.9761277
-3.979412	c0ii-s0iikf-ii-t0aa	-0.4720647
-2.833284	c0ii-s0iikf-xxll	-2.341985
-3.50229	c0ii-s0iikf-xxnf	-0.9706268
-3.678382	c0ii-vv	-0.7817406
-3.979412	c0ii-wv-c0ii-k0oo	-0.5165539
-3.678382	c0ii-xxnf	-0.7808286
-3.979412	c0iikf-c0aang-s0qqng-hhwall-xxll	-0.5157334
-3.678382	c0iikf-c0vvpf	-0.7817861
-3.979412	c0iikf-hhuu-ee	-0.5165539
-3.979412	c0iill	-0.5165084
-3.979412	c0iill-mmuunf-xxll	-0.5164629
-3.979412	c0iill-rrvv	-0.5164173
-3.979412	c0iill-s0qqkf-ii-vvss-t0aa	-0.4720647
-3.979412	c0iimf-s0xxng	-0.5159615
-3.678382	c0iimf-s0xxng-ii	-0.737292
-3.979412	c0iimf-s0xxng-ii-rryv-nnii-wa	-0.5165084
-3.979412	c0iimf-s0xxng-ii-vvss-t0aa	-0.4720647
-3.979412	c0iimf-s0xxng-iinf-c0uull-rroo-mmaanf	-0.5165084
-3.50229	c0iimf-s0xxng-t0oo	-0.9759455
-3.678382	c0iimf-s0xxng-t0xxll-t0oo	-0.7817406
-3.979412	c0iimf-s0xxng-xi	-0.5165084
-3.979412	c0iimf-s0xxng-xxll	-0.5160983
-3.678382	c0iinf	-0.7817861
-3.979412	c0iinf-c0oong-iill	-0.5165539
-3.979412	c0iinf-ccaa-rroo	-0.5165084
-3.678382	c0iinf-nnuunf-kkqq-p0ii-k0aa	-0.7817861
-3.979412	c0iinf-p0uu-wa	-0.5165539
-3.979412	c0iinf-s0uu-k0aa	-0.5164629
-3.979412	c0iinf-s0uu-nnxxnf	-0.5164629
-3.678382	c0iinf-t0aall-rrqq-k0aa	-0.781695
-3.979412	c0iinf-ttaamf-xxll	-0.5165539
-3.377352	c0iing-k0vvmf-t0aa-rrii	-1.139117
-3.201261	c0iing-k0vvmf-t0aa-rrii-rrxxll	-1.432608
-3.979412	c0iipf	-0.5165539
-3.979412	c0iipf-c0iipf-mmaa-t0aa	-0.5165539
-3.979412	c0iipf-c0uung-xxll	-0.5165084
-3.280442	c0iipf-ee	-1.28681
-3.678382	c0iipf-ee-s0vv	-0.7811936
-3.979412	c0iipf-ii-vvss-s0xxpf-nnii-t0aa	-0.4720647
-3.979412	c0iipf-k0ee-t0aa-rrii	-0.5164629
-3.979412	c0iipf-k0ee-t0aa-rrii-mmaanf	-0.5165539
-3.979412	c0iipf-k0ee-t0aa-rrii-rrxxll	-0.5165539
-3.979412	c0iipf-kkaa-c0ii	-0.5165539
-3.678382	c0iipf-vv	-0.7816039
-3.979412	c0iipf-vv-wa	-0.5165084
-3.377352	c0iipf-xx-rroo	-1.138889
-3.979412	c0iis0-ii	-0.5165539
-3.979412	c0iis0-k0ii-t0oo	-0.5165084
-3.979412	c0iis0-k0oo	-0.5165539
-3.678382	c0iis0-k0uuc0-xxnf	-0.7815127
-3.678382	c0iis0-nnxxnf	-0.781695
-3.979412	c0iith-k0oo	-0.5165539
-3.979412	c0iith-xxnf	-0.5165539
-3.377352	c0oo	-1.139117
-3.979412	c0oo-hhaapf	-0.5165084
-3.979412	c0oo-k0aakf-ii	-0.5165084
-3.979412	c0oo-k0aanf-xxll	-0.5165084
-3.979412	c0oo-k0qq-c0ii	-0.4720647
-3.678382	c0oo-k0uukf-xi	-0.781695
-3.678382	c0oo-k0xx-mmaa-hhaanf	-0.7817861
-3.979412	c0oo-k0xxmf	-0.5165539
-3.678382	c0oo-k0xxmf-t0oo	-0.7817861
-3.979412	c0oo-k0xxmf-xxnf	-0.5165539
-3.50229	c0oo-kkii	-0.9756745
-3.979412	c0oo-mmuu-rrqq-k0ii-t0xxll-ee-k0ee	-0.5165539
-3.979412	c0oo-rrxx-mmyvnf	-0.5165539
-3.678382	c0oo-s0aang-ee-k0ee	-0.781462
-3.979412	c0oo-s0iimf-c0oo-s0iimf	-0.5164629
-3.979412	c0oo-s0iimf-hhaa-nnxxnf	-0.5146827
-3.979412	c0oo-s0iimf-hhii	-0.5165539
-3.979412	c0oo-s0iimf-s0xx-rrvvpf-k0ee	-0.5165539
-3.979412	c0oo-ssii	-0.5165539
-3.979412	c0oo-yakf-t0ooll-ii	-0.5165539
-3.979412	c0oo-yakf-t0ooll-ii-vvss-t0aa	-0.4720647
-3.50229	c0oo-yakf-t0ooll-xxll	-0.9760366
-3.979412	c0oo-yong-hhaa-k0ii-mmaanf	-0.5157334
-3.979412	c0oo-yong-hhaanf	-0.5164629
-3.678382	c0oo-yong-hhii	-0.7815127
-3.979412	c0oo-yong-hhqq-c0iipf-nnii-t0aa	-0.4720647
-3.979412	c0ooch-aa-k0aass-t0aa	-0.4720647
-3.979412	c0oohh-aa	-0.5165084
-3.979412	c0oohh-aa-c0ii-k0ii-t0oo	-0.5157334
-3.979412	c0oohh-aa-hhqqss-k0oo	-0.5165084
-3.979412	c0oohh-aa-hhqqss-t0aa	-0.4720647
-3.979412	c0oohh-aa-s0vv	-0.5165539
-3.979412	c0oohh-aass-t0aa	-0.4720647
-3.979412	c0oohh-aass-vv-yo	-0.4720647
-3.678382	c0oohh-k0eess-t0aa	-0.7370183
-3.678382	c0oohh-t0aa-nnxxnf	-0.7799147
-3.979412	c0oohh-t0aa-nnxxnf-t0ee	-0.5165539
-3.979412	c0oohh-xx-nnii	-0.5162806
-3.979412	c0oohh-xxll	-0.5158246
-3.678382	c0oohh-xxnf	-0.7817861
-3.979412	c0ookf-hhaall	-0.5147741
-3.678382	c0ooll-mmyvnf-s0vv	-0.7817861
-3.979412	c0ooll-rryvll-hhaanf	-0.5165539
-2.900231	c0oomf	-1.431781
-3.979412	c0oomf-chee	-0.5165539
-3.678382	c0oomf-chvv-rrvvmf	-0.7817861
-3.50229	c0oomf-t0vv	-0.9753526
-3.678382	c0oonf-c0qq-k0aa	-0.781376
-3.979412	c0oonf-c0qq-nnxxnf	-0.5165539
-3.979412	c0oong-c0ii-p0uu	-0.5165084
-3.678382	c0oong-ii	-0.7817861
-3.979412	c0oong-ii-rrxxll	-0.5165539
-3.979412	c0oong-rroo-ee	-0.5149342
-3.979412	c0oong-rryu-wa	-0.5165539
-3.979412	c0qq-c0aall-k0vv-rrii-mmyv	-0.5165539
-3.979412	c0qq-chaang-c0oo-t0wonf	-0.5165539
-3.979412	c0qq-chookf-hhaanf-t0aa-k0oo	-0.5164173
-3.979412	c0qq-chookf-xxll	-0.5160071
-3.979412	c0qq-k0uu-s0vvng-t0wonf	-0.5165084
-3.979412	c0qq-mmii	-0.5165539
-3.678382	c0qq-mmii-iiss-nnxxnf	-0.7817861
-3.979412	c0qq-ppaall-rrii	-0.5165539
-3.979412	c0qqnf-k0vvll-xxmf-chyv	-0.5165539
-3.979412	c0uu-c0ee-ee	-0.5165539
-3.979412	c0uu-c0ee-t0oo	-0.5165539
-3.377352	c0uu-c0ii	-1.138615
-3.979412	c0uu-c0vv-aanc-aa	-0.5165084
-3.979412	c0uu-c0vvng-kkuunf	-0.5165539
-3.979412	c0uu-iinf-ee	-0.5164629
-3.678382	c0uu-iinf-xi	-0.7817406
-3.979412	c0uu-iinf-xxll	-0.5165539
-3.979412	c0uu-k0ii-rrxxll	-0.5165539
-3.678382	c0uu-k0ii-t0oo	-0.7802805
-3.50229	c0uu-k0oo	-0.9758087
-3.678382	c0uu-k0oo-p0aatf-nnxxnf	-0.781695
-3.678382	c0uu-k0vvkf-xxll	-0.7817861
-3.979412	c0uu-mmaakf	-0.5165084
-3.979412	c0uu-mmaakf-ee-s0vv	-0.5165539
-3.979412	c0uu-mmaakf-ii-vvss-t0aa	-0.4720647
-3.979412	c0uu-mmookf-c0vvkf-xx-rroo	-0.5157334
-3.979412	c0uu-mmuu-rrxx-nnxxnf	-0.5165539
-3.678382	c0uu-mmvv-nnii	-0.7814216
-3.50229	c0uu-mmvv-nnii-ee	-0.9761277
-3.979412	c0uu-nnii	-0.5165539
-3.201261	c0uu-nnxxnf	-1.43311
-3.979412	c0uu-rroo	-0.5165539
-3.377352	c0uu-s0ee-yo	-1.092538
-3.979412	c0uu-s0ii-mmyvnf	-0.5159615
-3.979412	c0uu-s0ii-nnxxnf	-0.5163717
-3.979412	c0uu-s0iill-kkaa	-0.5165539
-3.678382	c0uu-s0iinf	-0.7816495
-3.979412	c0uu-s0oo-t0oo	-0.5161895
-3.979412	c0uu-s0yv-s0vv	-0.5165539
-3.979412	c0uu-s0yvss-nnxxnf-c0ii-t0oo	-0.4720647
-3.678382	c0uu-s0yvss-t0aa	-0.7370183
-3.979412	c0uu-s0yvss-xx-nnii-kkaa-yo	-0.4720647
-3.979412	c0uu-t0aanf	-0.5165539
-3.979412	c0uu-t0uung-ii-rroo	-0.5165539
-3.678382	c0uu-vvss-s0xxpf-nnii-t0aa	-0.7370183
-3.979412	c0uu-vvss-t0aa	-0.4720647
-3.377352	c0uu-vvss-vv-yo	-0.9097078
-3.979412	c0uu-wi-rrxxll	-0.5165539
-3.377352	c0uu-wv	-1.139482
-3.979412	c0uukf-iill	-0.5147741
-3.979412	c0uukf-k0ii-ee	-0.5165539
-3.678382	c0uukf-k0ii-nnxxnf	-0.7817861
-3.979412	c0uukf-nnxxnf	-0.5165539
-3.979412	c0uukf-t0aa-nnii	-0.5163717
-3.979412	c0uukf-vv	-0.5164629
-3.979412	c0uukf-vvss-nnxxnf-c0ii	-0.5165539
-3.979412	c0uukf-xxll	-0.5165539
-3.979412	c0uukf-xxll-c0ii-t0oo	-0.5165539
-2.979412	c0uull	-2.201921
-3.979412	c0uull-c0uull	-0.5165539
-3.979412	c0uull-hhqqng-rraang-xxll	-0.5165539
-3.979412	c0uull-mmaanf	-0.5165084
-3.979412	c0uull-t0aa-rrii-k0ii-rrxxll	-0.5165084
-3.979412	c0uull-xxll	-0.5162806
-3.50229	c0uull-xxnf	-0.9761277
-3.979412	c0uumf-xx-rroo-ssvv	-0.5165539
-3.377352	c0uunf	-1.139345
-3.979412	c0uunf-p0ii-hhqq	-0.5164173
-3.979412	c0uunf-t0aa	-0.4720647
-3.678382	c0uunf-t0aa-nnxxnf	-0.7805089
-3.979412	c0uung-chvvnf-ee	-0.5165539
-3.979412	c0uung-ee	-0.5164629
-3.979412	c0uung-ee-nnxxnf	-0.5164629
-3.678382	c0uung-ee-s0vv	-0.781695
-3.979412	c0uung-hhaakf-s0qqng-xx-rroo	-0.5164629
-3.979412	c0uung-k0uukf-iinf-ii-nnaa	-0.5165539
-3.979412	c0uung-k0uukf-iinf-xxnf	-0.5165539
-3.979412	c0uung-s0ii-hhaa-nnxxnf	-0.5165539
-3.979412	c0uung-s0iimf-xx-rroo	-0.5165539
-3.979412	c0uung-xxnf	-0.5165084
-3.134314	c0vv	-1.581624
-3.979412	c0vv-c0uu-nnxxnf	-0.5165084
-3.979412	c0vv-c0vvll-rroo	-0.5163717
-3.979412	c0vv-ccookf-xx-rroo	-0.5163717
-3.979412	c0vv-ccxxmf	-0.5165539
-3.979412	c0vv-ee-k0ee	-0.5164629
-3.979412	c0vv-hhxi	-0.5163717
-3.979412	c0vv-hhxi-rrxxll	-0.5165539
-3.979412	c0vv-k0ii	-0.5165539
-3.678382	c0vv-k0vvs0	-0.781462
-3.979412	c0vv-mmaa-t0aa	-0.5157334
-3.979412	c0vv-mmaanf-khxxmf	-0.5165084
-3.979412	c0vv-mmuull-t0oo-rrookf	-0.5165084
-3.979412	c0vv-mmuull-vvss-nnxxnf-t0ee-t0oo	-0.5165084
-3.979412	c0vv-nnoomf-xi	-0.5165084
-3.678382	c0vv-nnxxnf	-0.781695
-3.979412	c0vv-nnyvkf-xxnf	-0.5165539
-3.979412	c0vv-p0wa-rraa	-0.5165084
-3.979412	c0vv-phyvnf-ee-s0vv	-0.5165539
-3.979412	c0vv-rrii	-0.5164629
-3.979412	c0vv-rrvv-t0aa-k0aa-nnxxnf	-0.5165539
-3.979412	c0vv-rrvvhh-k0ee	-0.5165084
-3.979412	c0vv-rrvvnf	-0.5164629
-3.979412	c0vv-rrxxll	-0.5161895
-3.979412	c0vv-t0oo	-0.5164629
-3.678382	c0vvc0-mmvvkf-ii	-0.7817861
-3.979412	c0vvc0-mmvvkf-ii-rrxxll	-0.5165539
-3.979412	c0vvc0-s0xxpf-nnii-t0aa	-0.4720647
-3.979412	c0vvc0-vvss-t0aa-k0vv-nnaa	-0.5164629
-3.979412	c0vvc0-xx-mmyvnf-s0vv	-0.5165539
-3.979412	c0vvc0-xxnf	-0.5165084
-3.979412	c0vvkf	-0.5165539
-3.678382	c0vvkf-ii	-0.7805318
-3.50229	c0vvkf-k0ee	-0.9759911
-3.979412	c0vvkf-k0oo	-0.5161439
-3.979412	c0vvkf-s0uu-rroo	-0.5165539
-3.678382	c0vvkf-t0oo	-0.7802304
-3.979412	c0vvkf-vv-t0oo	-0.5159159
-3.979412	c0vvkf-xxng-ii	-0.5165084
-3.678382	c0vvll-rroo	-0.7817406
-3.979412	c0vvll-rrvvng-c0vvll-rrvvng	-0.5163717
-3.979412	c0vvll-t0qq-c0vvkf-iinf	-0.5146827
-3.979412	c0vvll-t0qq-rroo	-0.5159159
-3.979412	c0vvlm-t0aa-k0oo	-0.5165539
-3.678382	c0vvlm-xxnf	-0.7817861
-3.979412	c0vvlm-xxnf-ii-t0xxll-xi	-0.5165539
-3.377352	c0vvmf-c0vvmf	-1.13825
-3.50229	c0vvmf-ee-s0vv	-0.9737296
-3.979412	c0vvmf-ee-s0vv-nnxxnf	-0.5165084
-3.979412	c0vvmf-s0iimf-ttqq-k0aa	-0.5165539
-3.979412	c0vvmf-s0uu-nnaa	-0.5161895
-3.979412	c0vvmf-xxnf	-0.5158703
-3.678382	c0vvnf	-0.781695
-3.979412	c0vvnf-c0qqng	-0.5165539
-3.979412	c0vvnf-chaa-rrxxll	-0.5165539
-3.979412	c0vvnf-chee-c0vvkf-iinf	-0.5165539
-3.979412	c0vvnf-chee-rrxxll	-0.5165539
-3.280442	c0vvnf-ee	-1.28729
-3.678382	c0vvnf-hhyv	-0.7817861
-3.979412	c0vvnf-ii-t0aa	-0.4720647
-3.979412	c0vvnf-k0ii-p0aapf-s0ooth-ee	-0.5164629
-3.979412	c0vvnf-k0ii-p0aapf-s0ooth-xxll	-0.5163262
-3.979412	c0vvnf-k0ii-t0oo	-0.5159615
-3.979412	c0vvnf-k0qq-t0wo-vvss-t0aa	-0.4720647
-3.979412	c0vvnf-mmuunf-c0vvkf-iinf	-0.5165539
-3.979412	c0vvnf-p0uu	-0.5165539
-3.979412	c0vvnf-p0uu-rrxxll	-0.5165084
-3.979412	c0vvnf-p0uu-thvv	-0.5164629
-3.979412	c0vvnf-s0aa-hhqqss-t0aa-nnxxnf	-0.5165539
-3.979412	c0vvnf-t0xxll-xxll	-0.5165084
-3.979412	c0vvnf-xi	-0.5165539
-3.979412	c0vvng-hhqq	-0.5161439
-3.979412	c0vvng-k0vv-c0aang-ee-s0vv	-0.5165084
-3.979412	c0vvng-k0yo-hhaanf	-0.5165539
-3.979412	c0vvng-k0yvll-hhaanf	-0.5165539
-3.678382	c0vvng-mmaall	-0.781695
-3.979412	c0vvng-s0iinf	-0.5165539
-3.678382	c0vvng-s0iinf-vvps-ii	-0.7814672
-3.979412	c0vvng-s0iinf-vvps-nnxxnf	-0.5163717
-3.50229	c0vvng-s0iinf-xxll	-0.9760366
-3.979412	c0vvng-s0vvng-k0wa	-0.5165539
-3.979412	c0vvng-t0oo-rroo	-0.5165539
-3.979412	c0vvng-wvll	-0.5165539
-3.979412	c0vvng-wvnf-s0aa-ii-t0aa	-0.4720647
-3.979412	c0vvng-xxll	-0.5165539
-3.979412	c0vvpf-chyvss-xxll	-0.5164629
-3.979412	c0vvpf-hhaa-k0ee	-0.5161439
-3.979412	c0vvs0-k0aa-rraakf-xx-rroo	-0.5165539
-3.979412	c0wa-phaanf	-0.5164629
-3.979412	c0wa-s0vvkf-ee-s0vv	-0.5165539
-3.979412	c0wo	-0.5161439
-3.979412	c0wo-rrxxll	-0.5165084
-3.979412	c0wvss-xx-mmyvnf	-0.5165084
-3.280442	c0xxkf	-1.288614
-3.979412	c0xxll-k0vv-uull	-0.5147741
-3.979412	c0xxll-k0vv-uumf-xxll	-0.5165539
-3.979412	c0xxll-k0vvpf-k0ee	-0.5165539
-3.979412	c0xxll-k0vvpf-k0ii-mmaanf	-0.5157334
-3.979412	c0xxll-k0vvpf-k0oo	-0.5165539
-3.979412	c0xxng-mmyvng-hhaa-rryv	-0.5160071
-3.979412	c0xxng-oo-s0iimf-t0oo	-0.5165539
-3.979412	c0xxng-s0oonf-nnyv-rraa-nnxxnf	-0.5162806
-3.979412	ccaa-c0aang	-0.5165539
-3.979412	ccaa-c0xxng-s0xx-rrvvpf-k0ii-mmaanf	-0.5157334
-3.979412	ccaa-rriis0-hhaa-k0ee	-0.5164629
-3.979412	ccaakf-ccaakf-ii	-0.5140418
-3.678382	ccaakf-ii	-0.7805089
-3.979412	ccaalb-k0ee	-0.5165539
-3.979412	ccaalb-xxnf	-0.5165539
-3.979412	ccii-iikf-kkaall-k0ii-nnxxnf	-0.516235
-3.979412	ccii-k0oo	-0.5165539
-3.979412	ccii-kkvv-k0ii-rrxxll	-0.5165539
-3.979412	ccii-rrxxnf-t0aa-k0oo	-0.5164629
-3.979412	cciic0-vv-c0iinf	-0.5165084
-3.979412	cciic0-vv-c0yvss-t0aa	-0.4720647
-3.979412	cciikf	-0.5165539
-3.979412	cciikf-k0oo	-0.5165539
-3.979412	cciikf-vv-k0aa-mmyv	-0.5164173
-3.979412	cciill	-0.5165539
-3.979412	cciing-k0xx-rrii-mmyv	-0.5165539
-3.979412	cciipf-cciill-hhaanf	-0.5165539
-3.979412	ccoo-ii-nnxxnf	-0.5165084
-3.979412	ccoo-k0ii-t0oo	-0.5147741
-3.979412	ccooch-aa-k0aass-vv-yo	-0.4720647
-3.979412	ccooch-k0ii-k0oo	-0.5165084
-3.979412	ccooch-k0oo	-0.5157334
-3.979412	ccooch-xx-rryv-k0oo	-0.5165539
-3.678382	ccookf	-0.7817861
-3.979412	ccookf-ii	-0.5164629
-3.979412	ccookf-xx-rroo-t0xxnf-c0ii	-0.5165084
-3.979412	ccookf-xx-rrvv	-0.5164629
-3.979412	ccookf-xxll	-0.5165084
-3.979412	ccookf-xxnf	-0.5164629
-3.979412	ccoong-ccoong	-0.5165539
-3.979412	ccuu-k0xx-rrii-k0oo	-0.5160071
-3.979412	ccuu-uukf	-0.5165539
-3.979412	ccuung-k0xxs0-hhaa-k0oo	-0.5164629
-3.979412	ccvvll-ccvvll-mmqq-k0oo	-0.516349
-3.979412	ccwo-t0vvnf	-0.5163034
-3.678382	ccyvss-nnxxnf-c0ii	-0.7816039
-3.201261	chaa	-1.433649
-3.979412	chaa-c0ii-hhaa-k0oo	-0.516349
-3.979412	chaa-c0ii-hhaa-nnxxnf	-0.5162806
-3.979412	chaa-chaa	-0.5165539
-3.979412	chaa-chxxmf	-0.5165539
-3.979412	chaa-ee-s0vv	-0.5165539
-3.979412	chaa-ii-nnxxnf	-0.5164629
-3.979412	chaa-k0aa	-0.5165539
-3.979412	chaa-k0aa-uumf-xxll	-0.5165084
-3.979412	chaa-k0aa-uunf	-0.5165539
-3.678382	chaa-k0oo	-0.7816495
-3.678382	chaa-nnxxnf	-0.7817861
-3.979412	chaa-p0ii-t0oo	-0.5165539
-3.979412	chaa-rroo	-0.5165084
-3.280442	chaa-rrxxll	-1.288705
-3.678382	chaa-rrye	-0.781695
-3.50229	chaa-rryv	-0.9758543
-3.979412	chaa-t0ii-chaanf	-0.5165539
-3.979412	chaa-wvnf-ii	-0.5165084
-3.201261	chaac0-aa	-1.43352
-3.979412	chaac0-aa-oonf	-0.5159615
-3.979412	chaac0-aa-oopf-nnii-t0aa	-0.4720647
-3.979412	chaac0-aa-rraa	-0.4720647
-3.979412	chaac0-c0ii	-0.5162806
-3.979412	chaac0-k0ee	-0.5163262
-3.979412	chaac0-k0oo	-0.5165084
-3.979412	chaac0-k0vv-t0xxnf	-0.5163717
-3.979412	chaac0-nnxxnf	-0.5165539
-3.979412	chaac0-nnxxnf-t0aa-k0oo	-0.5165084
-3.979412	chaac0-nnxxnf-t0ee	-0.5165539
-3.979412	chaac0-xxll	-0.5163262
-3.678382	chaakf-hhaanf	-0.7815127
-3.979412	chaakf-s0iill-hhaanf	-0.5165539
-3.979412	chaall-chaall-ii	-0.5140418
-3.134314	chaamf	-1.582718
-3.678382	chaamf-k0ee-nnxxnf	-0.7816039
-3.979412	chaamf-k0ee-wa	-0.5165539
-3.979412	chaamf-k0ii-rrxxmf	-0.5165084
-3.979412	chaamf-k0ii-rrxxmf-xxll	-0.5165084
-3.979412	chaamf-k0oo	-0.5165539
-3.979412	chaamf-wo-p0aath-xxll	-0.5165539
-3.979412	chaamf-xx-rroo	-0.5165539
-3.979412	chaamf-yv-hhaanf	-0.5165539
-3.979412	chaanf-p0aapf	-0.5165539
-3.979412	chaanf-t0aa	-0.4720647
-3.979412	chaang-c0oo-c0vvkf	-0.5165539
-3.979412	chaang-c0oo-hhaa-k0oo	-0.5165539
-3.979412	chaang-c0oo-hhqq	-0.5164629
-3.979412	chaang-c0oo-s0vvng-ii-t0aa	-0.4720647
-3.678382	chaang-k0aa-ee	-0.781376
-3.979412	chaang-mmuunf	-0.5165084
-3.979412	chaang-mmuunf-xxll	-0.5165539
-3.979412	chaang-phii-s0xx-rrvv-uunf	-0.5159615
-3.979412	chaass-t0aa	-0.4720647
-3.678382	chee	-0.7815583
-3.979412	chee-c0xxng-t0oo	-0.5165539
-3.979412	chee-hhaanf-t0aa	-0.4720647
-3.979412	chee-hhqqss-t0aa	-0.4720647
-3.979412	chee-hhvvmf-mmaanf-xx-rroo-ssvv	-0.5165539
-3.979412	chee-hhvvmf-xx-rroo	-0.5140418
-3.50229	chee-hhvvmf-xx-rroo-ssvv	-0.9755352
-3.979412	chee-hhvvmf-xxll	-0.5165539
-3.979412	chee-nnyvmf-hhaall	-0.5165084
-3.979412	chii-c0aang-hhqq	-0.5163717
-3.979412	chii-ii-k0oo	-0.5160071
-3.979412	chii-k0oo	-0.5165539
-3.678382	chii-mmyv	-0.7817861
-3.979412	chii-rrvv-ya	-0.5158703
-3.979412	chii-rrxxnf-t0aa	-0.4720647
-3.979412	chii-rryo-hhaa-rryv-k0oo	-0.5165539
-3.979412	chii-wv	-0.4720647
-3.979412	chiill-hhaanf	-0.5165084
-3.979412	chiill-phaanf-ee	-0.5164629
-3.979412	chiill-phaanf-xxll	-0.5164629
-3.979412	chiimf-mmuukf-hhaanf	-0.5165539
-3.979412	chiinf	-0.5165539
-3.979412	chiinf-hhqq-c0yv	-0.5163717
-3.979412	chiinf-k0uu-ee-k0ee	-0.5165539
-3.979412	chiinf-k0uu-k0aa	-0.5165539
-3.979412	chiinf-k0uu-t0xxll-ii-rraa	-0.5159615
-3.979412	chiinf-t0aa	-0.4720647
-3.979412	choo-c0oo-hhaall	-0.5165539
-3.979412	choo-c0oo-hhqq-c0yvss-k0oo	-0.5165539
-3.50229	choo-hhyvnf-s0iill-c0vvkf-iinf	-0.974759
-3.979412	choo-k0aa-c0iipf	-0.5165539
-3.979412	choo-k0aa-c0iipf-xxnf	-0.5165539
-3.979412	choo-p0oo-c0vvkf-ii-yo	-0.5165539
-3.979412	choo-p0vvll	-0.5165539
-3.979412	choo-rroong-choo-rroong-hhqq-c0iinf-t0aa	-0.4720647
-3.979412	choo-s0ii-nnee	-0.5165539
-3.979412	choong-aall-ii	-0.5164629
-3.979412	choong-chee-c0vvkf-iinf	-0.5161895
-3.678382	choong-k0aakf-t0xxll-ii	-0.7817406
-3.979412	chqq-mmaanf-s0iikf-xxnf	-0.5165539
-3.979412	chqq-rroo	-0.5165539
-3.979412	chqq-yvng-s0iinf-ii	-0.5163717
-3.979412	chqq-yvng-s0iinf-ii-rraanf	-0.5165539
-3.979412	chqq-yvng-s0iinf-k0wa	-0.5163717
-3.979412	chqqkf-mmaang-hhaa-nnxxnf	-0.5165539
-3.979412	chqqkf-mmaang-ii-vvss-t0aa	-0.4720647
-3.50229	chqqkf-p0oo-rrxxll	-0.9761277
-3.979412	chqqkf-s0aang-xxll	-0.5165084
-3.979412	chqqng-k0ii-rrxxmf-c0qqng-ii	-0.5160071
-3.50229	chuu-hhaanf	-0.9750788
-3.979412	chuu-k0uu-hhaa-k0ee	-0.5165539
-3.979412	chuu-k0uu-hhaa-k0ii	-0.5161439
-3.979412	chuu-k0uu-hhaa-k0ii-t0oo	-0.5158703
-3.979412	chuu-k0uu-hhaa-mmyvnf-s0vv	-0.5162806
-3.979412	chuu-k0uu-hhaa-nnxxnf	-0.5162806
-3.979412	chuu-k0uu-hhaa-yv	-0.5164629
-3.979412	chuu-nnyv-rrxxll	-0.5164629
-3.979412	chuu-t0xxs0	-0.5165539
-3.979412	chuu-uu-s0iill	-0.5165084
-3.979412	chuu-uunf	-0.5165539
-3.979412	chuu-wv-c0ii-mmyvnf	-0.5165539
-3.979412	chuu-wv-c0yv	-0.5165084
-3.979412	chuukf-c0vvkf-ii-yo	-0.5161895
-3.979412	chuukf-t0xxll-ii	-0.5165539
-3.979412	chuukf-t0xxll-t0oo	-0.5160983
-3.979412	chuukf-t0xxll-xxll	-0.5165539
-3.979412	chuukf-t0xxll-xxnf	-0.5135835
-3.979412	chuull	-0.5162806
-3.979412	chuull-phaanf-k0wanf-k0ye	-0.5160983
-3.979412	chuull-phaanf-s0aa	-0.5165539
-3.979412	chuumf-chuu-rrvv	-0.5165539
-3.678382	chuumf-xxll	-0.7817861
-3.979412	chuunf-hhyang-ii-nnaa	-0.5165539
-3.678382	chuung-c0uus0-c0iipf	-0.7816039
-3.50229	chuung-c0uus0-c0iipf-xxll	-0.9761277
-3.979412	chuung-c0uus0-c0iipf-xxnf	-0.5165539
-3.979412	chuung-p0uunf-hhii	-0.5165539
-3.979412	chuung-s0vvng-s0xx-rrvvnf	-0.5165084
-3.979412	chuupf-chuupf-s0xx-rrvvpf-k0ee	-0.5165539
-3.979412	chvv-c0yv	-0.5149342
-3.979412	chvv-mmvvkf-k0oo	-0.5165084
-3.979412	chvv-nnyv-k0aa	-0.5165539
-3.979412	chvv-xxmf-ee-nnxxnf	-0.5163717
-3.979412	chvv-xxmf-ii-vvss-t0aa	-0.4720647
-3.979412	chvvkf	-0.5165084
-3.979412	chvvll	-0.5165539
-3.979412	chvvll-hhxi	-0.5165539
-3.979412	chvvll-vvps-ii	-0.5165084
-3.979412	chvvll-xxll	-0.5165539
-3.678382	chvvnf	-0.7817861
-3.979412	chvvnf-c0iinf-hhaanf	-0.5165539
-3.979412	chvvnf-chvvnf-hhaanf	-0.5165539
-3.979412	chvvnf-chvvnf-hhii	-0.5165539
-3.979412	chvvnf-mmaanf-xi	-0.5165539
-3.979412	chvvng-chvvng-hhaanf	-0.5165539
-3.979412	chvvng-nnyvnf-t0xxll-ii	-0.5163717
-3.979412	chvvng-rryang-hhaanf	-0.5164629
-3.979412	chvvng-rryang-rrii-yvkf-xx-rroo	-0.5165539
-3.979412	chvvng-s0oo	-0.5165539
-3.979412	chvvng-s0oo-hhaamf-ee	-0.5165539
-3.979412	chvvng-s0ooll-k0aa-c0ii-rrxxll	-0.5165539
-3.979412	chvvs0-nnuunf-ii-vvss-c0ii-mmaanf	-0.5165539
-3.979412	chwi-hhaa-k0ee	-0.5165539
-3.979412	chwi-hhqq	-0.5161439
-3.979412	chwo-c0oong	-0.5165539
-3.979412	chwo-yong-s0iinf-ii-rraa-nnxxnf	-0.5165539
-3.979412	chxxkf-mmyvnf-ee-s0vv	-0.5165539
-3.979412	chxxkf-xi	-0.5165539
-3.979412	chxxkf-xxnf-hhii	-0.5165539
-3.50229	chyv	-0.9757175
-3.979412	chyv-t0aa-p0oo-ii-nnxxnf	-0.5146827
-3.979412	chyv-t0aa-p0oo-k0oo-nnxxnf	-0.5165539
-3.979412	chyv-t0aa-p0oo-nnxxnf	-0.5165539
-3.678382	chyv-t0xxll-k0oo	-0.7816495
-3.979412	chyv-t0xxll-rriinf	-0.5165539
-3.979412	chyvss-t0aa	-0.4720647
-3.50229	hhaa-c0aa	-0.9318422
-3.280442	hhaa-c0ii	-1.286892
-3.979412	hhaa-c0ii-mmaa-nnxxnf	-0.5165539
-3.076322	hhaa-c0ii-mmaanf	-1.745119
-3.979412	hhaa-c0ii-nnxxnf	-0.5165539
-3.678382	hhaa-k0eess-c0ii-mmaanf	-0.780646
-3.979412	hhaa-k0eess-nnxxnf-k0aa	-0.4720647
-3.50229	hhaa-k0eess-t0aa	-0.9318422
-3.979412	hhaa-k0ii	-0.5163262
-2.377352	hhaa-k0oo	-2.146444
-3.678382	hhaa-k0oo-nnxxnf	-0.7815583
-3.979412	hhaa-k0uu-ya	-0.5165539
-3.678382	hhaa-k0vv-nnaa	-0.7817406
-3.201261	hhaa-mmyv	-1.432699
-2.865469	hhaa-mmyvnf	-1.502971
-3.377352	hhaa-mmyvnf-s0vv	-1.094771
-3.280442	hhaa-nnaa	-1.288249
-3.678382	hhaa-nnaa-k0aa	-0.781462
-3.678382	hhaa-nnaa-nniimf	-0.7800062
-3.979412	hhaa-nnaa-nniimf-kkee	-0.5165539
-3.678382	hhaa-nnaa-nnxxnf	-0.7817861
-3.678382	hhaa-nnaa-rrxxll	-0.7815583
-3.979412	hhaa-nnaa-t0aa	-0.4720647
-3.678382	hhaa-nnaa-xi	-0.7817861
-3.979412	hhaa-nnii	-0.5165084
-3.678382	hhaa-nnxxll	-0.78149
-3.979412	hhaa-nnxxll-ee-s0vv	-0.5158246
-3.979412	hhaa-nnxxll-ee-s0vvnf	-0.5165539
-3.678382	hhaa-nnxxll-nnaa-rraa	-0.7817406
-3.025169	hhaa-nnxxll-rroo	-1.939681
-3.979412	hhaa-nnxxll-xi	-0.5165539
-2.700658	hhaa-nnxxnf	-2.052108
-3.979412	hhaa-nnxxnf-t0ee	-0.5164173
-3.979412	hhaa-rruu-hhaa-rruu-k0aa	-0.5165539
-3.979412	hhaa-rruu-k0aa	-0.5165539
-3.979412	hhaa-rruu-nnxxnf	-0.5160983
-3.979412	hhaa-s0uu-t0oo	-0.5165539
-3.979412	hhaa-t0aa	-0.5165084
-3.50229	hhaa-t0aa-k0aa	-0.9756719
-3.979412	hhaa-t0oo	-0.5165084
-3.979412	hhaa-t0vv-nnii	-0.5165084
-3.979412	hhaa-t0vvnf	-0.5164173
-3.678382	hhaa-yanf	-0.7817861
-3.979412	hhaa-yv-t0oo	-0.5165539
-3.979412	hhaa-yvmf-vvps-ii	-0.5165539
-3.50229	hhaa-yvss-t0aa	-0.9318422
-3.678382	hhaa-yvss-xx-nnaa	-0.7815583
-3.678382	hhaakf-k0yo	-0.781695
-3.979412	hhaakf-k0yo-ee-s0vv	-0.5164173
-3.979412	hhaakf-mmaa-xxll	-0.5162806
-3.979412	hhaakf-s0qqng-ii	-0.5165539
-2.900231	hhaall	-1.907283
-3.979412	hhaall-c0ii-rraa-t0oo	-0.5165084
-3.979412	hhaall-mmvv-nnii-nnxxnf	-0.5135835
-3.979412	hhaalt-aa	-0.5165084
-2.938019	hhaamf-kkee	-2.715481
-3.979412	hhaamf-yang-k0wa	-0.5165539
-2.231224	hhaanf	-2.930431
-3.979412	hhaanf-c0vvkf-hhaanf	-0.5165084
-3.979412	hhaanf-ccookf	-0.5165539
-3.979412	hhaanf-ccookf-ee	-0.5162806
-3.280442	hhaanf-chaamf	-1.288249
-3.979412	hhaanf-chaang-ii-vvss-t0aa	-0.4720647
-3.979412	hhaanf-k0aa-rroopf-k0ee	-0.5165539
-3.678382	hhaanf-k0aa-uunf-t0ee	-0.7811936
-3.979412	hhaanf-k0aa-uunf-t0ee-ee	-0.5160071
-3.979412	hhaanf-k0uukf	-0.5165084
-3.979412	hhaanf-k0uukf-ee-nnxxnf	-0.5165084
-3.979412	hhaanf-k0uukf-iinf-ee-k0ee-nnxxnf	-0.5158246
-3.979412	hhaanf-k0uukf-iinf-xxnf	-0.5140418
-3.979412	hhaanf-k0yvll-k0aath-ii	-0.5165539
-3.979412	hhaanf-kkvv-p0vvnf-ee	-0.5161439
-3.979412	hhaanf-mmaa-t0ii	-0.5165084
-3.678382	hhaanf-mmooks	-0.7817406
-3.50229	hhaanf-p0vvnf	-0.9761277
-3.979412	hhaanf-p0vvnf-ssiikf	-0.5165539
-3.979412	hhaanf-p0vvnf-xxnf	-0.5163262
-3.678382	hhaanf-phyvnf	-0.781695
-3.979412	hhaanf-phyvnf-ee	-0.5152768
-3.979412	hhaanf-phyvnf-xx-rroo-nnxxnf	-0.5163262
-3.979412	hhaanf-phyvng-s0qqng	-0.5165539
-3.678382	hhaanf-s0uumf-xxll	-0.7817861
-2.775292	hhaanf-t0aa	-1.473979
-3.979412	hhaanf-t0aa-k0vv-nnaa	-0.5165539
-3.979412	hhaanf-t0aa-mmyvnf	-0.5140418
-3.979412	hhaanf-t0aa-t0vv-k0uunf	-0.4720647
-3.979412	hhaanf-t0aanf	-0.5164629
-3.979412	hhaanf-t0aanf-t0aa	-0.4720647
-3.979412	hhaanf-t0aapf-nnii-t0aa	-0.4720647
-3.979412	hhaanf-t0uu	-0.5165539
-3.979412	hhaanf-thvvkf	-0.5165539
-3.979412	hhaanf-yong-uunf-xxnf	-0.5165539
-3.979412	hhaanf-yv-rrxxmf	-0.5165539
-3.979412	hhaanf-yv-rrxxmf-ee-nnxxnf	-0.5163717
-3.979412	hhaapf-hhqq	-0.5163717
-3.678382	hhaapf-nnii-t0aa	-0.7370183
-3.979412	hhee-chyvss-t0aa	-0.4720647
-3.979412	hhee-mmvvkf-k0ii-k0aa	-0.5165539
-3.979412	hhee-vvmf-chyv	-0.5165539
-3.979412	hheeng-k0uu-vv	-0.5165539
-3.979412	hheeng-k0uull	-0.5165539
-3.50229	hhiimf-ii	-0.9760366
-3.979412	hhiimf-t0xx-s0ii-c0yo	-0.4720647
-3.979412	hhiimf-xi	-0.5165084
-3.979412	hhiimf-xx-rroo	-0.5165539
-3.979412	hhiimf-xxll	-0.5165539
-3.979412	hhoo-rraakf-hhoo-rraakf	-0.5165539
-3.979412	hhoo-rraang	-0.5165084
-3.979412	hhoo-rraang-ii	-0.4720647
-3.678382	hhoo-rraang-ii-ee-k0ee	-0.7815127
-3.979412	hhoo-rraang-ii-ee-k0ee-t0oo	-0.5164173
-3.201261	hhoo-rraang-ii-k0aa	-1.432824
-2.938019	hhoo-rraang-ii-nnxxnf	-2.710846
-3.678382	hhoo-rraang-ii-rraa-k0oo	-0.7812392
-3.50229	hhoo-rraang-ii-rrxxll	-0.9760366
-3.979412	hhoo-rraang-ii-t0oo	-0.5165084
-3.979412	hhoo-rraang-ii-vvss-s0xxpf-nnii-t0aa	-0.4720647
-3.979412	hhoo-rroong-p0uull	-0.5165539
-3.979412	hhoo-rryvng-ee	-0.5165539
-3.979412	hhoo-rryvng-xxll	-0.5165084
-3.979412	hhoo-s0oo-hhaa-nnxxnf	-0.5164173
-3.979412	hhoo-s0vvnf-ii	-0.5165539
-3.979412	hhoo-thaang-hhaa-k0ee	-0.5165539
-3.979412	hhookf-s0ii	-0.5163262
-3.979412	hhookf-xxnf	-0.5165084
-3.979412	hhooll-chii-k0ee-rrxxll	-0.5165539
-3.678382	hhoonf-c0aa	-0.781695
-3.979412	hhoonf-c0aa-s0vv	-0.5165084
-3.979412	hhoonf-c0aa-xi	-0.5165084
-3.979412	hhoonf-iinf-c0aanf-chii-nnaa	-0.5165539
-3.979412	hhoonf-p0ii-p0qqkf-s0aanf	-0.5165539
-3.979412	hhoonf-thaakf-hhaanf	-0.5162806
-3.979412	hhoong-p0oo-nnaa	-0.5165539
-2.979412	hhqq	-2.157694
-3.979412	hhqq-iinf-s0aa	-0.5165539
-3.280442	hhqq-k0aa	-1.288522
-3.979412	hhqq-k0yvll-hhaa-nnxxnf	-0.5165539
-3.979412	hhqq-nniimf-chvv-rrvvmf	-0.5165539
-3.979412	hhqq-nniimf-ii	-0.5165539
-3.678382	hhqq-nnxxnf	-0.7816495
-3.979412	hhqq-p0ooll-kkaa-yo	-0.4720647
-3.979412	hhqq-p0oopf-s0ii-t0aa	-0.4720647
-3.979412	hhqq-s0uu-yokf-c0aang-xxll	-0.5165084
-3.201261	hhqq-s0vv	-1.432334
-3.979412	hhqq-s0vv-k0aa	-0.5164173
-3.979412	hhqq-s0vvkf-xxll	-0.5165539
-3.377352	hhqq-t0oo	-1.139254
-3.979412	hhqq-t0uu	-0.516235
-3.979412	hhqq-uunf-t0qq	-0.5165539
-3.979412	hhqq-wa	-0.5165084
-3.50229	hhqq-ya	-0.9759911
-3.979412	hhqqng-k0iill-ii	-0.5165539
-3.979412	hhqqng-p0ookf-hhaa-k0ee	-0.5165539
-3.979412	hhqqng-p0ookf-ii-t0aa	-0.5163262
-3.979412	hhqqng-s0aa-ee	-0.5165539
-3.979412	hhqqng-s0aa-ii-k0ii	-0.5159615
-3.979412	hhqqng-t0oong-xxll	-0.5161439
-3.979412	hhqqng-wi-ee	-0.5165084
-3.979412	hhqqng-wi-mmaanf-xxll	-0.5164629
-3.979412	hhqqng-wi-rrxxll	-0.5165084
-3.979412	hhqqs0-p0aall-ii	-0.5165084
-3.979412	hhqqs0-p0iich	-0.5165539
-3.979412	hhqqs0-s0aall	-0.5165084
-3.979412	hhqqs0-s0aall-ii	-0.5163717
-3.50229	hhqqss-c0ii-mmaanf	-0.9752614
-3.678382	hhqqss-c0ii-yo	-0.7370183
-3.979412	hhqqss-k0ii	-0.5165084
-3.678382	hhqqss-nnxxnf-t0ee	-0.781695
-3.979412	hhqqss-s0xxpf-nnii-t0aa	-0.4720647
-2.700658	hhqqss-t0aa	-1.54653
-3.979412	hhqqss-t0vv-nnii	-0.5165084
-3.979412	hhqqss-t0vv-nnii-p0aang-mmaang-ii	-0.5163717
-3.50229	hhqqss-vv-yo	-0.9318422
-3.979412	hhqqss-xx-mmyv	-0.5165539
-3.678382	hhqqss-xx-nnaa	-0.7817406
-3.979412	hhqqss-xxll	-0.5164629
-3.280442	hhuu	-1.28777
-3.979412	hhuu-chvvnf-c0vvkf-iinf	-0.5159615
-3.979412	hhuu-chvvnf-c0vvkf-xx-rroo	-0.5165539
-3.50229	hhuu-ee	-0.9758543
-3.979412	hhuu-hhwo-hhaa-k0oo	-0.5165539
-3.979412	hhuu-rree-s0wi-rrxxll	-0.5165539
-3.979412	hhuu-rriinf	-0.5165539
-3.979412	hhuukf-hhuukf	-0.5165539
-3.979412	hhuull-hhuull	-0.5164629
-3.979412	hhuull-rryung-hhaa-k0oo	-0.5165539
-3.979412	hhuull-rryung-hhaanf	-0.5164173
-3.979412	hhuumf-chyv	-0.5165539
-3.979412	hhuunf-hhuunf-hhaanf	-0.5165539
-3.979412	hhuunf-hhuunf-hhqq-c0ii-nnii-kkaa	-0.5165539
-3.979412	hhuunf-hhuunf-hhqq-c0iinf	-0.5157106
-3.201261	hhvv	-1.11367
-3.979412	hhvv-c0vvnf-hhaamf-ii	-0.5165539
-3.979412	hhvv-hhwang-hhaanf	-0.5165539
-3.979412	hhvv-k0uu-c0vvkf	-0.5165539
-3.979412	hhvv-p0vvkf-c0ii-k0aa	-0.5165539
-3.979412	hhvv-rrii-ee	-0.5165539
-3.979412	hhvv-rrii-rrxxll	-0.5165539
-3.979412	hhvv-rrii-ttii-chvv-rrvvmf	-0.5165539
-3.678382	hhvv-s0qqng-wvnf-xxnf	-0.7817861
-3.979412	hhvv-t0vvkf-ii-mmyv	-0.5164629
-3.979412	hhvv-thaanf-hhaanf	-0.5165539
-3.979412	hhvv-thaang-ii-t0aa	-0.4720647
-3.979412	hhvvll-rree-p0vvll-ttvvkf-k0vv-rrii-mmyv	-0.5165539
-3.979412	hhvvll-ttvvkf-ii-mmyv	-0.5165539
-3.979412	hhvvnf	-0.5165539
-3.979412	hhvvnf-s0iinf-c0vvkf-ii-vvss-t0aa-k0oo	-0.5165539
-3.979412	hhvvnf-s0iinf-hhaa-nnxxnf	-0.5165539
-3.979412	hhvvnf-s0iinf-hhaa-t0aa-k0aa	-0.5165539
-3.979412	hhvvs0-t0ii-t0yvss-t0aa	-0.4720647
-3.979412	hhvvs0-t0oo-nnxxnf	-0.5159615
-3.979412	hhwa-c0aang-phuumf-xxll	-0.5165539
-3.979412	hhwa-c0uung-c0ii-p0yvng-ii-c0ii	-0.4720647
-3.678382	hhwa-k0aa	-0.781695
-3.678382	hhwa-rrxxll	-0.7817861
-3.979412	hhwa-wvnf-ii-rraa-k0oo	-0.5160527
-3.979412	hhwakf	-0.5165539
-3.979412	hhwall-ccaakf	-0.5165084
-3.979412	hhwall-t0oong-ee	-0.5165084
-3.979412	hhwall-t0oong-xx-rroo-s0vv	-0.5165539
-3.979412	hhwall-t0oong-xxnf	-0.5159615
-3.979412	hhwall-yong-hhaa-nnxxnf	-0.5162806
-3.678382	hhwanf-hhii	-0.7817861
-3.979412	hhwanf-hhqq-c0ii-k0oo	-0.5165539
-3.979412	hhwanf-s0aang-xxll	-0.5165539
-3.979412	hhwang-k0xxpf-hhii	-0.5165539
-3.979412	hhwang-rryang-hhaapf-nnii-t0aa	-0.4720647
-3.979412	hhwi-c0aang	-0.5164629
-3.979412	hhwi-c0aang-xxll	-0.5165084
-3.979412	hhwi-c0vv-vv	-0.5165539
-3.979412	hhwi-chvvng-hhwi-chvvng	-0.5165539
-3.979412	hhwi-t0uull-rrvv	-0.5163717
-3.979412	hhwi-t0uung-k0xx-rree-c0yvss-vv-yo	-0.4720647
-3.979412	hhwi-vv-c0aapf-aa	-0.5165539
-3.979412	hhwikf-hhaa-nnii	-0.5163717
-3.979412	hhwo	-0.5164629
-3.979412	hhwo-s0aa	-0.5165539
-3.979412	hhwo-s0aa-ee-s0vv	-0.5164629
-3.979412	hhwo-xi-ee	-0.5165539
-3.377352	hhwokf-t0xxkf-hhaa-nnxxnf	-1.139345
-3.979412	hhwokf-t0xxkf-xxll	-0.5165539
-3.979412	hhwqkf	-0.5165084
-3.979412	hhwqs0-p0uull-xxll	-0.5163262
-3.678382	hhwvll-hhwvll	-0.7814164
-3.979412	hhxi-mmvvll-k0vvnf	-0.5165539
-3.979412	hhxi-s0qqng-t0wonf	-0.5165539
-3.678382	hhxi-vvss-t0aa	-0.7370183
-3.979412	hhxinf	-0.5165539
-3.979412	hhxx-hhxx-hhxx	-0.4720647
-3.979412	hhxx-mmuus0-hhaa-k0ee	-0.5165539
-3.979412	hhxx-mmuus0-hhqq-hhaa-s0yvss-t0aa	-0.4720647
-3.979412	hhxx-nnxx-kkyv	-0.5165084
-3.979412	hhxx-rrxx-k0oo	-0.5165312
-3.979412	hhxx-rrxx-nnxxnf	-0.5160983
-3.979412	hhxx-rrxxpf-nnii-t0aa	-0.4720647
-3.979412	hhxxlk-k0wa	-0.5165084
-3.979412	hhxxlk-p0aa-rraamf-ii	-0.5165539
-3.979412	hhxxlk-xxll	-0.5165084
-3.979412	hhxxll-k0yv-t0oo	-0.5165084
-3.979412	hhxxll-kkxxs0	-0.5165539
-3.979412	hhxxll-rrii-mmyvnf-s0vv	-0.5165539
-3.979412	hhxxll-rrii-nnxxnf	-0.5165539
-3.979412	hhxxll-rriinf	-0.5165084
-3.979412	hhxxll-rrvv	-0.5165539
-3.979412	hhxxll-rrvv-t0xxll-vvss-t0aa	-0.4720647
-3.678382	hhxxll-rrvvss-t0aa	-0.7370183
-3.979412	hhxxll-rryvss-c0ii-mmaanf	-0.5164629
-3.678382	hhxxmf-chiis0	-0.781695
-3.678382	hhxxmf-ppvvkf	-0.7817861
-3.979412	hhxxnf-hhii	-0.5165539
-3.979412	hhxxnf-t0xxll-k0oo	-0.5152768
-3.979412	hhxxnf-t0xxll-k0vv-nnaa	-0.5165084
-3.979412	hhxxnf-t0xxll-mmyv	-0.5163717
-3.979412	hhxxnf-t0xxll-rraa-chii-mmyvnf	-0.5165084
-3.979412	hhxxnf-t0xxll-vv	-0.5163717
-3.979412	hhxxng	-0.4720647
-3.979412	hhxxng-c0vvng-ii-yo	-0.5165539
-3.979412	hhxxng-c0vvng-xxnf	-0.5165539
-3.979412	hhxxng-chvvng-k0vv-rrii-mmyv	-0.5165539
-3.979412	hhxxng-k0yvpf-k0ii-k0aa	-0.5165539
-3.979412	hhxxng-p0uunf-ii	-0.5165539
-3.979412	hhxxpf-s0uu-c0ii-k0aa	-0.516235
-3.979412	hhxxth-vv-c0yv	-0.5149342
-3.979412	hhxxth-vv-c0yv-s0vv	-0.5165084
-3.979412	hhyang-hhaa-yv	-0.5165539
-3.50229	hhyang-hhqq	-0.9760821
-3.678382	hhyang-hhqq-s0vv	-0.7817406
-3.678382	hhyang-hhqqss-vv-yo	-0.7370183
-3.979412	hhyang-k0ii-k0aa	-0.5165539
-3.979412	hhyang-k0ii-rroo-wv-c0iill	-0.5147741
-3.979412	hhyang-k0ii-rroopf-k0oo	-0.516235
-3.979412	hhyung-chxxkf-hhaanf	-0.5165539
-3.979412	hhyvnf-c0aang-xx-rroo	-0.5165539
-3.979412	hhyvnf-k0ii-c0xxng-ii	-0.5165539
-3.979412	hhyvnf-s0aang-xx-rroo	-0.5165539
-3.979412	hhyvnf-s0iill	-0.5163717
-3.979412	hhyvnf-s0iill-ee	-0.5155509
-3.201261	hhyvnf-s0iill-ii	-1.433156
-3.979412	hhyvnf-s0iill-ii-rraa-k0oo	-0.5158703
-3.678382	hhyvnf-s0iill-ii-t0aa	-0.7370183
-3.50229	hhyvnf-s0iill-k0wa	-0.9754439
-3.678382	hhyvnf-s0iill-k0wa-xi	-0.7817861
-3.979412	hhyvnf-s0iill-mmaanf-xxll	-0.5161439
-3.979412	hhyvnf-s0iill-rroo-nnxxnf	-0.5165539
-3.50229	hhyvnf-s0iill-xi	-0.9736151
-3.134314	hhyvnf-s0iill-xxll	-1.580505
-3.50229	hhyvnf-s0iill-xxnf	-0.9748536
-3.979412	hhyvnf-t0qq-iinf-t0xxll-xxnf	-0.5165084
-3.979412	hhyvng-phyvnf-ii	-0.5159615
-3.979412	hhyvng-s0vvng-ee	-0.5164173
-3.979412	hhyvng-s0vvng-hhaall	-0.5146827
-3.979412	hhyvng-s0vvng-hhaanf-t0aa	-0.4720647
-3.979412	hhyvng-thqq-rroo	-0.5165539
-3.979412	hhyvs0-p0aa-t0aakf-xx-rroo	-0.5165084
-2.377352	ii	-2.199463
-3.280442	ii-c0ee	-1.288705
-3.678382	ii-c0ee-nnxxnf	-0.7817861
-3.979412	ii-chii-rrxxll	-0.5165539
-3.979412	ii-chvv-rrvvmf	-0.5162806
-3.979412	ii-ee-k0ee	-0.5165539
-3.979412	ii-ee-k0ee-nnxxnf	-0.5164629
-3.979412	ii-hhuu	-0.5158703
-3.979412	ii-hhuu-t0aa	-0.4720647
-3.377352	ii-k0ee	-1.138889
-3.979412	ii-k0oo	-0.5163262
-3.979412	ii-k0oos0-ee-s0vv	-0.5165539
-3.979412	ii-k0vvll-rroo	-0.5164629
-3.678382	ii-k0vvs0-ii	-0.7814672
-3.979412	ii-k0vvs0-t0oo	-0.5165084
-3.377352	ii-k0vvs0-xxll	-1.139436
-3.50229	ii-k0vvs0-xxnf	-0.9761277
-3.979412	ii-k0wang-s0uu-nnxxnf	-0.5164629
-3.979412	ii-mmaa-rrxxll	-0.5165539
-3.678382	ii-mmii	-0.7817861
-3.979412	ii-nnaall	-0.5165539
-3.678382	ii-nnqq	-0.7816495
-3.678382	ii-nnxxnf	-0.781695
-3.979412	ii-p0vvmf-s0vvnf-xi	-0.5165539
-3.377352	ii-p0vvnf-ee-nnxxnf	-1.136189
-3.979412	ii-ppuu-rrii-k0aa	-0.5165539
-3.678382	ii-rrii	-0.781695
-3.979412	ii-rrii-c0vv-rrii	-0.5164629
-3.979412	ii-rrii-hhaa-yv	-0.5165539
-3.678382	ii-rrii-rroo	-0.7817861
-3.979412	ii-rrqq-s0vv	-0.5160071
-3.979412	ii-rruu	-0.5165539
-3.979412	ii-rruu-k0ee	-0.5162806
-3.979412	ii-rruu-nnii	-0.5165539
-3.979412	ii-rruu-nnxxnf	-0.5165539
-3.979412	ii-rruu-vv-c0ii-c0ii	-0.5165539
-3.979412	ii-rruunf-t0aa	-0.4720647
-3.280442	ii-rrvv-hhaanf	-1.288568
-3.979412	ii-rrvv-s0ee-yo	-0.4720647
-3.104351	ii-rrvvhh-k0ee	-1.609194
-3.979412	ii-rrvvhh-k0ee-s0aa	-0.5165539
-3.979412	ii-rrvvll	-0.5158703
-3.134314	ii-rrvvnf	-1.58249
-3.979412	ii-rrvvnf-c0vv-rrvvnf	-0.5165539
-3.979412	ii-rrxx-k0ii-kkaa-c0ii	-0.5164173
-3.979412	ii-rrxx-nnii	-0.5165084
-3.979412	ii-rrxx-rrvv-s0vv-ya	-0.5165539
-3.979412	ii-rrxx-rrvvss-t0aa	-0.4720647
-3.280442	ii-rrxxll	-1.287621
-3.979412	ii-rrxxmf-nnaanf	-0.5165539
-3.678382	ii-rrxxmf-t0oo	-0.7815127
-3.979412	ii-rrxxmf-xxll	-0.5165539
-3.678382	ii-rrxxnf	-0.7817861
-3.979412	ii-s0aang	-0.5165539
-3.979412	ii-s0aang-ee	-0.5165084
-3.979412	ii-s0aang-hhaa-k0ee	-0.5165084
-3.979412	ii-s0aang-hhaa-t0aa	-0.4720647
-3.979412	ii-s0aang-hhaanf	-0.5165539
-3.979412	ii-s0aang-hhwa-nnxxnf	-0.5165539
-3.678382	ii-s0aang-ii	-0.7809655
-3.979412	ii-s0aang-ii-rraa-nnxxnf	-0.5159615
-3.979412	ii-s0aang-ii-yo	-0.5164173
-3.678382	ii-s0aang-k0wa	-0.7817861
-3.280442	ii-s0aang-xi	-1.286741
-3.979412	ii-s0aang-xx-rroo	-0.5164629
-2.979412	ii-s0aang-xxll	-2.204476
-3.201261	ii-s0aang-xxnf	-1.432836
-3.979412	ii-s0iipf	-0.5165539
-3.979412	ii-s0iipf-yv	-0.5165539
-3.678382	ii-t0xxll-xi	-0.7813304
-3.979412	ii-ttaa-k0xxmf	-0.5165084
-3.979412	ii-ttqq	-0.5147741
-3.979412	ii-ttqq-ccxxmf	-0.5165084
-3.979412	ii-ttqq-mmaanf-xxnf	-0.5165539
-3.979412	ii-uus0	-0.5165539
-3.979412	ii-uus0-ii	-0.5165539
-3.979412	ii-uus0-xx-rroo	-0.5163717
-3.678382	ii-vv	-0.7816495
-3.979412	ii-vv-c0ii-nnxxnf	-0.5165539
-3.979412	ii-vv-c0yv-ya	-0.5161439
-3.50229	ii-wa	-0.9750818
-3.979412	ii-xi	-0.5165084
-3.979412	ii-ya-k0ii	-0.5165539
-3.979412	ii-ya-k0ii-hhqqss-t0aa-mmyvnf	-0.5162806
-3.678382	ii-ya-k0ii-k0aa	-0.7378558
-3.979412	ii-ya-k0ii-kkaa-c0ii	-0.5147741
-3.979412	ii-ya-k0ii-nnxxnf	-0.5165539
-3.979412	ii-ya-k0ii-rraapf-nnii-t0aa	-0.4720647
-3.50229	ii-ya-k0ii-rrxxll	-0.9760366
-3.979412	ii-yong-hhaanf-t0aa	-0.4720647
-3.979412	ii-yong-hhqqss-t0aa	-0.4720647
-3.979412	ii-yu-nnxxnf	-0.5165539
-3.979412	ii-yu-rrxxll	-0.5164629
-3.979412	iic0-k0oo	-0.5163717
-3.678382	iic0-vv-p0vv-rrii-k0oo	-0.781695
-3.979412	iic0-xxll	-0.5161439
-3.979412	iikf-k0oo	-0.5165539
-3.979412	iikf-nnxxnf	-0.5161895
-3.979412	iilh-k0oo	-0.5164629
-3.50229	iilh-vv-p0vv-rriinf	-0.9757175
-3.979412	iilh-vv-p0vv-rryvss-k0uunf-yo	-0.4720647
-3.979412	iilh-vv-p0vv-rryvss-nnxxnf-c0ii	-0.5165084
-3.979412	iilk-k0oo	-0.5165084
-3.979412	iilk-nnxxnf	-0.5165539
-3.979412	iilk-vv	-0.5161439
-3.50229	iill	-0.9758543
-3.50229	iill-c0ee	-0.9757656
-3.979412	iill-c0vvnf-ee	-0.5164629
-3.678382	iill-cciikf	-0.7817861
-3.979412	iill-hhaa-s0ii-k0ii	-0.5165539
-3.979412	iill-hhqqss-vv-yo	-0.4720647
-2.979412	iill-ii	-2.200431
-3.979412	iill-ii-c0yo	-0.4720647
-3.979412	iill-ii-rraa	-0.5164629
-3.979412	iill-ii-rraa-t0oo	-0.5165539
-3.377352	iill-ii-t0aa	-0.9097078
-3.979412	iill-ii-vv-s0vv	-0.5164173
-3.979412	iill-ii-vvss-t0aa	-0.4720647
-3.979412	iill-k0oopf	-0.5165539
-3.678382	iill-mmyvnf-xxnf	-0.7811936
-3.979412	iill-p0aakk-ee	-0.5164629
-3.678382	iill-p0oonf	-0.7815127
-3.979412	iill-p0oonf-iinf-t0xxll-t0oo	-0.5161439
-3.678382	iill-rrvv	-0.7813708
-3.50229	iill-s0aang	-0.9757656
-3.979412	iill-s0aang-c0vvkf	-0.5165084
-3.50229	iill-s0aang-c0vvkf-iinf	-0.9756263
-3.979412	iill-s0aang-ee	-0.5164629
-3.979412	iill-s0ii-c0vvkf-iinf	-0.5165539
-3.979412	iill-s0qqng	-0.5164629
-3.678382	iill-t0aanf	-0.7817861
-3.377352	iill-t0oo	-1.138889
-3.979412	iill-t0xxll-ii	-0.5165539
-3.979412	iill-t0xxll-p0oo-t0aa-nnxxnf	-0.5165539
-3.979412	iill-t0xxll-xxll	-0.5165084
-3.979412	iill-vv-nnaa	-0.5165539
-3.979412	iill-vv-nnaa-k0oo	-0.5164629
-3.979412	iill-vv-nnaanf-t0aa	-0.4720647
-3.979412	iill-vv-s0vv-k0ii-nnxxnf	-0.5165084
-3.979412	iill-vv-s0vvss-t0aa	-0.4720647
-3.979412	iill-xx-khii-mmyv	-0.5157106
-2.938019	iill-xxll	-2.714659
-3.50229	iill-xxnf	-0.9753983
-3.979412	iimf-ii	-0.5165539
-3.979412	iinf-c0ee	-0.5158246
-3.979412	iinf-c0ee-nnxxnf	-0.5165539
-3.979412	iinf-hhqq-s0vv	-0.5165539
-3.979412	iinf-k0aa-k0aa	-0.5165539
-3.979412	iinf-k0aanf-ii	-0.5165539
-3.979412	iinf-k0aanf-mmaanf-ii	-0.5165539
-3.979412	iinf-k0aanf-xxll	-0.5165084
-3.979412	iinf-k0aanf-xxnf	-0.5164629
-3.678382	iinf-k0yvkf	-0.7817861
-3.979412	iinf-mmuull-t0xxll-xxll	-0.5165539
-3.979412	iinf-mmuull-xxll	-0.5165539
-3.979412	iinf-mmuull-xxnf	-0.5165084
-3.678382	iinf-phuumf-xxll	-0.7817861
-3.979412	iinf-rryu-k0aa	-0.5165539
-3.979412	iinf-s0aa-c0oo-chaa	-0.5160527
-3.979412	iinf-s0aa-chvv-rrvvmf	-0.5161895
-3.979412	iinf-s0aa-rrxxll	-0.5140418
-3.979412	iinf-s0qqng-ee-s0vv	-0.5163717
-3.678382	iinf-s0qqng-xi	-0.7817861
-3.979412	iinf-s0qqng-xxnf	-0.5165539
-3.979412	iinf-t0uu-rroo	-0.5163262
-3.979412	iing-khxx	-0.5165539
-3.979412	iing-thqq-t0wonf	-0.5160071
-3.979412	iipf-ee	-0.5165539
-3.979412	iipf-ee-s0vv	-0.5165084
-3.678382	iipf-hhii-k0oo	-0.7813253
-3.979412	iipf-k0ii	-0.5165539
-3.50229	iipf-k0oo	-0.9750788
-3.979412	iipf-mmaas0-ii	-0.5165539
-3.979412	iipf-s0uull-ee	-0.5165539
-3.979412	iipf-s0uull-xxll	-0.5165539
-3.678382	iipf-vv	-0.7817861
-3.979412	iipf-vv-ya	-0.5147741
-3.979412	iipf-xx-s0ee-yo	-0.4720647
-3.678382	iipf-xxll	-0.7817861
-3.979412	iipf-xxnf	-0.5165539
-3.678382	iiss-c0ii	-0.7817861
-3.979412	iiss-c0ii-yo	-0.4720647
-3.979412	iiss-k0eess-c0ii	-0.4720647
-3.979412	iiss-k0eess-nnxx-nnya	-0.4720647
-3.979412	iiss-k0eess-vv	-0.4720647
-3.50229	iiss-k0oo	-0.9760366
-3.979412	iiss-k0uu-nnaa-rraa-k0oo	-0.5165539
-3.979412	iiss-k0vvnf-mmaanf	-0.5165084
-3.979412	iiss-nnaa	-0.4720647
-3.678382	iiss-nnii	-0.7370183
-3.979412	iiss-nnoo-rraa-mmyvnf	-0.5165539
-2.417119	iiss-nnxxnf	-2.385358
-3.979412	iiss-nnxxnf-c0ii-t0oo	-0.5165084
-3.678382	iiss-nnxxnf-k0aa	-0.7809606
-3.239049	iiss-nnxxnf-t0ee	-1.324964
-3.50229	iiss-s0xxpf-nnii-t0aa	-0.9318422
-2.5992	iiss-t0aa	-1.685089
-3.979412	iiss-t0aa-k0aa	-0.5163262
-3.678382	iiss-t0aa-k0aa-nnxxnf	-0.7788154
-3.377352	iiss-t0aa-k0oo	-1.138569
-3.979412	iiss-t0aa-nnxxnf	-0.5164629
-3.979412	iiss-t0oo-rrookf	-0.5163717
-3.280442	iiss-t0vvnf	-1.287701
-3.280442	iiss-vv	-1.243939
-3.979412	iiss-vv-s0vv	-0.5163262
-3.678382	iiss-vv-t0oo	-0.7799604
-3.678382	iiss-vv-ya	-0.781695
-3.979412	iiss-vv-ya-c0yo	-0.4720647
-3.678382	iiss-vv-yo	-0.7370183
-3.979412	iiss-vvss-c0ii-mmaa-nnxxnf	-0.5165539
-3.979412	iiss-vvss-k0oo	-0.5165539
-3.979412	iiss-vvss-k0uu-nnaa	-0.4720647
-3.678382	iiss-vvss-nnxxnf-t0ee	-0.7788154
-3.377352	iiss-vvss-s0xxpf-nnii-t0aa	-0.9097078
-2.517014	iiss-vvss-t0aa	-1.726317
-3.979412	iiss-vvss-t0aa-uu	-0.4720647
-3.979412	iiss-vvss-t0aapf-nnii-t0aa	-0.4720647
-3.280442	iiss-vvss-t0vvnf	-1.285443
-3.076322	iiss-vvss-vv-yo	-1.185914
-3.979412	iiss-vvss-xx-nnaa	-0.5165084
-3.979412	iiss-vvss-xxll-kkaa	-0.4720647
-3.979412	iiss-xx-mmyvnf	-0.5165084
-3.979412	iiss-xx-mmyvnf-s0vv-t0oo	-0.5164173
-3.979412	iiss-xx-nnaa	-0.5165539
-3.979412	iiss-xx-nnii	-0.5135835
-3.979412	iiss-xx-rryv-nnxxnf-t0ee	-0.5164629
-3.280442	iiss-xxll	-1.286787
-3.50229	iiss-xxll-kkaa	-0.931317
-3.979412	iiss-xxll-kkaa-mmaa-nnxxnf	-0.5165539
-3.80332	iiss-xxll-kkaa-yo	-0.5575253
-3.979412	iiss-xxll-rraa-chii-mmyvnf	-0.5157334
-3.979412	iiss-xxmf-xx-rroo	-0.5163262
-3.201261	k0aa	-1.388433
-3.979412	k0aa-c0aa	-0.4720647
-3.280442	k0aa-c0aang	-1.288067
-3.134314	k0aa-c0ii	-1.581487
-3.979412	k0aa-c0ii-k0aa	-0.5155052
-3.025169	k0aa-c0ii-k0oo	-1.938059
-3.979412	k0aa-c0ii-k0oo-t0oo	-0.5165539
-3.979412	k0aa-c0ii-nnxxnf	-0.5165539
-3.979412	k0aa-c0iinf	-0.5165539
-3.979412	k0aa-c0vvng	-0.5164629
-3.979412	k0aa-c0vvng-xxll	-0.5165539
-3.979412	k0aa-c0yv	-0.5164629
-3.979412	k0aa-c0yv-oo-nnvv-rraa	-0.4720647
-3.979412	k0aa-c0yv-wa	-0.4720647
-3.979412	k0aa-c0yvss-t0aa-nnxxnf	-0.5159615
-3.979412	k0aa-chii-rrxxll	-0.5165539
-3.678382	k0aa-ee	-0.7811936
-3.979412	k0aa-k0ii	-0.5163262
-3.979412	k0aa-k0ii-t0oo	-0.5147741
-3.979412	k0aa-k0oong-xi	-0.5165539
-3.979412	k0aa-kkaa-uunf	-0.5164629
-3.979412	k0aa-kkaa-wv-s0vv-ya	-0.5165539
-3.979412	k0aa-kkuu-nnxxnf	-0.5165084
-3.979412	k0aa-kkuu-vv	-0.5164629
-3.979412	k0aa-kkuu-vv-ya	-0.5160527
-3.979412	k0aa-kkuunf	-0.5165539
-3.979412	k0aa-kkxxmf	-0.5165539
-3.979412	k0aa-mmaa-t0xxkf-hhaa-k0ee	-0.5165539
-3.979412	k0aa-mmaanf-hhii	-0.5165539
-3.979412	k0aa-mmaanf-k0aa-mmaanf	-0.5164629
-3.979412	k0aa-mmuumf-ii-rraa-t0oo	-0.5165539
-3.50229	k0aa-mmyvnf	-0.9759455
-3.979412	k0aa-nnaanf-hhaanf	-0.5164629
-3.678382	k0aa-nnaanf-xxll	-0.7812797
-3.201261	k0aa-nnxxnf	-1.432288
-3.979412	k0aa-nnxxnf-k0wi-k0aa	-0.5160527
-3.979412	k0aa-nnxxng-hhaa-k0oo	-0.5165539
-3.979412	k0aa-nnxxng-hhaa-mmyvnf	-0.5149342
-3.979412	k0aa-nnxxng-s0vvng-ii-rraanf	-0.5159159
-3.979412	k0aa-nnxxng-s0vvng-mmaanf-xxnf	-0.5165539
-3.979412	k0aa-p0aang	-0.5160071
-3.979412	k0aa-p0aang-xxnf	-0.5165539
-3.979412	k0aa-p0vv-rrii-c0aa	-0.5159615
-3.979412	k0aa-p0vv-rryvss-t0aanf-t0aa	-0.4720647
-3.678382	k0aa-p0yv-uunf	-0.7817861
-3.979412	k0aa-rrii-khii-nnxxnf	-0.5161439
-3.979412	k0aa-rrii-khyvss-t0aa	-0.4720647
-3.979412	k0aa-rrii-vv	-0.5165539
-3.979412	k0aa-rriill	-0.5165539
-3.979412	k0aa-rroo-c0iill-rrvv	-0.5165539
-3.979412	k0aa-rroo-chqq-s0vv-nnxxnf	-0.5165539
-3.678382	k0aa-rrxx-chii-k0oo	-0.781462
-3.678382	k0aa-rrxx-chyv	-0.7816495
-3.979412	k0aa-rryang	-0.5165539
-3.979412	k0aa-rryv-k0oo	-0.5164629
-3.979412	k0aa-rryv-nnxxnf	-0.5165539
-3.50229	k0aa-rryvng	-0.9757175
-3.979412	k0aa-s0ee-yo	-0.4720647
-3.979412	k0aa-s0ee-yo-hhaa-k0oo	-0.5165084
-3.979412	k0aa-s0ii	-0.5165539
-3.979412	k0aa-s0ii-nnqq-t0xxll-xxnf	-0.5165084
-3.979412	k0aa-s0ii-nnxxnf	-0.5165539
-3.979412	k0aa-s0iinf-t0aa	-0.4720647
-3.025169	k0aa-s0vv	-1.939133
-3.979412	k0aa-s0xx-rrvv-c0iinf	-0.5165539
-3.678382	k0aa-s0xxmf	-0.779228
-3.678382	k0aa-s0xxmf-ii	-0.7817861
-3.979412	k0aa-s0xxmf-s0ookf-ee	-0.5165539
-3.377352	k0aa-s0xxmf-xxll	-1.139071
-3.979412	k0aa-t0aa	-0.5163717
-3.979412	k0aa-t0xxkf	-0.5165084
-3.678382	k0aa-t0xxs0-ii	-0.7817861
-3.979412	k0aa-uunf-t0ee	-0.5165539
-3.979412	k0aa-wi-wa	-0.5165539
-3.50229	k0aa-xxll	-0.9760821
-3.979412	k0aa-xxll-chvvll-ii-vvss-k0ii	-0.5159615
-3.979412	k0aa-xxll-hhaa-nnxxll-xxll	-0.5165539
-3.979412	k0aa-xxll-hhqqs0-s0aall-xxll	-0.5165084
-3.50229	k0aa-xxll-ii	-0.9758999
-3.979412	k0aa-xxll-ii-mmyvnf	-0.5165539
-3.979412	k0aa-xxll-t0oo	-0.5165539
-3.678382	k0aa-ya	-0.7802805
-3.979412	k0aa-yv-wv	-0.5165539
-3.979412	k0aa-yvps-k0ee-t0oo	-0.5164629
-3.979412	k0aa-yvps-k0ii-t0oo	-0.5164629
-3.979412	k0aac0-k0aa-c0ii	-0.5164173
-3.979412	k0aac0-k0oo-s0vv	-0.5165084
-3.979412	k0aac0-xxnf	-0.5165539
-3.979412	k0aakf-t0aa-k0wi-t0xxll	-0.5165539
-3.979412	k0aakf-t0aa-k0wi-t0xxll-t0oo	-0.5165539
-3.280442	k0aall	-1.287593
-3.979412	k0aall-k0yv	-0.5164173
-3.50229	k0aall-kkooch-ii	-0.9734776
-3.979412	k0aall-kkooch-mmvv-rrii-ee-s0vv	-0.5165539
-3.979412	k0aall-kkooch-ppuunf	-0.4720647
-3.979412	k0aall-kkooch-xxll	-0.5164173
-3.979412	k0aall-p0aath	-0.5165539
-3.979412	k0aall-p0aath-mmvv-rrii-ee-s0vv	-0.5164629
-3.979412	k0aall-p0aath-mmvv-rrii-rroo	-0.5160983
-3.979412	k0aall-p0aath-t0oo	-0.5158703
-3.678382	k0aall-rraa	-0.7817861
-3.979412	k0aall-rriimf-k0iill-ee	-0.5163717
-3.979412	k0aamf-ccookf-k0aath-ii	-0.5164629
-3.678382	k0aamf-chuu-nnxxnf	-0.7812848
-3.979412	k0aamf-chuu-s0ee-yo	-0.4720647
-3.979412	k0aamf-chuu-vv	-0.5164629
-3.979412	k0aamf-chuu-vvss-t0aa-k0oo-yo	-0.4720647
-3.979412	k0aamf-chuunf	-0.5165539
-3.979412	k0aamf-chwv	-0.5165539
-3.979412	k0aamf-ii	-0.5165539
-3.678382	k0aamf-k0oo	-0.78149
-3.979412	k0aamf-nnxxnf	-0.5163262
-3.979412	k0aamf-s0aa-hhaapf-nnii-t0aa	-0.5147741
-3.979412	k0aamf-t0aa-k0aa-t0oo	-0.5165539
-3.979412	k0aamf-t0oong-k0wa	-0.5165539
-3.979412	k0aamf-t0oong-xxll	-0.5165539
-3.979412	k0aanf-k0aanf-ii	-0.5165539
-3.979412	k0aanf-k0yo-hhaanf	-0.5160983
-3.979412	k0aanf-p0aakk-ee	-0.5165084
-3.979412	k0aanf-s0iinf-hhii	-0.5165539
-3.979412	k0aanf-t0aanf-hhaa-t0aa	-0.4720647
-3.979412	k0aanf-t0aanf-hhii	-0.5163262
-3.979412	k0aanf-xx-rroo	-0.5164173
-3.280442	k0aanf-xxll	-1.288386
-3.678382	k0aang-c0vvmf-k0ii-xi	-0.7815127
-3.979412	k0aang-ee-s0vv	-0.5165084
-3.979412	k0aang-k0ii-s0xxlk-xx-rroo	-0.5165539
-3.979412	k0aang-rrxxng	-0.5165539
-3.50229	k0aapf-c0aa-k0ii	-0.9756263
-3.979412	k0aapf-k0aapf-hhaa-k0oo	-0.5165539
-3.979412	k0aapf-nnii-t0aa	-0.4720647
-3.979412	k0aaps-c0iinf	-0.5165539
-3.979412	k0aaps-p0ii-ssaanf	-0.5162806
-3.979412	k0aaps-xx-rroo	-0.5165539
-3.50229	k0aaps-xxll	-0.9751244
-3.979412	k0aaps-xxnf	-0.5165539
-3.979412	k0aas0-nnaanf	-0.5165539
-3.979412	k0aass-s0xxpf-nnii-t0aa	-0.4720647
-3.678382	k0aass-t0aa	-0.737292
-3.979412	k0aass-t0aa-k0aa	-0.5164629
-3.979412	k0aass-t0aa-k0oo	-0.5165084
-3.979412	k0aass-vv-yo	-0.4720647
-3.979412	k0aass-xxll	-0.5165539
-3.280442	k0aath-aass-t0aa	-0.9968579
-3.678382	k0aath-c0ii-k0aa	-0.781376
-3.979412	k0aath-c0ii-nnxxnf	-0.5161895
-3.280442	k0aath-ii	-1.288705
-3.979412	k0aath-k0oo	-0.5163262
-3.979412	k0aath-t0aa	-0.4720647
-3.979412	k0aath-t0aa-k0oo	-0.5164629
-3.979412	k0aath-t0vv-nnii	-0.5165539
-3.979412	k0aath-xx-mmyvnf	-0.5165084
-2.865469	k0aath-xxnf	-1.50343
-3.201261	k0ee	-1.432551
-3.979412	k0ee-s0xxmf-chxx-rree-hhaanf	-0.5164173
-3.979412	k0ee-t0xxll-ii	-0.5165539
-3.979412	k0ii-c0vvkf	-0.5163717
-3.979412	k0ii-chaa-nnxxnf	-0.5165539
-3.979412	k0ii-chaa-t0oo	-0.5165539
-3.979412	k0ii-k0aa	-0.5165084
-3.979412	k0ii-k0aanf	-0.5164629
-3.979412	k0ii-kkvvs0	-0.5165539
-3.50229	k0ii-p0uunf-ii	-0.9757175
-3.979412	k0ii-p0uunf-ii-vvss-t0aa	-0.4720647
-3.979412	k0ii-p0vvpf-iinf	-0.5165084
-3.979412	k0ii-p0vvpf-k0wa	-0.5165539
-3.979412	k0ii-ppvv-s0vv	-0.5159159
-3.979412	k0ii-ppxxmf	-0.5163262
-3.979412	k0ii-ppxxmf-ii-rraa-mmyvnf	-0.5163717
-3.678382	k0ii-ppxxmf-k0wa	-0.7817861
-3.979412	k0ii-ppxxmf-xxll	-0.5165084
-3.979412	k0ii-rrookf-hhaa-nnxxnf	-0.5162806
-3.979412	k0ii-rrookf-k0wa	-0.5165539
-3.979412	k0ii-rrxx-k0ee	-0.5165084
-3.979412	k0ii-s0qqkf-ii	-0.5165539
-3.979412	k0ii-s0xxlk-ee-s0vv	-0.5165539
-3.979412	k0ii-t0aa-rrii-c0aa-nnxxnf	-0.5146827
-3.50229	k0ii-t0aa-rrii-k0oo	-0.9749417
-3.979412	k0ii-t0aa-rriill	-0.5161439
-3.979412	k0ii-t0aa-rryv	-0.5165539
-3.979412	k0ii-t0aa-rryv-rraa	-0.5163262
-3.979412	k0ii-t0aa-rryv-ya	-0.5165539
-3.979412	k0ii-t0aa-rryvss-vv-yo	-0.4720647
-3.979412	k0ii-t0oo-hhaa-c0aa	-0.5165539
-3.979412	k0ii-t0oo-rrxxll	-0.5164629
-3.979412	k0ii-uull-iinf	-0.5159159
-3.979412	k0ii-uull-k0oo	-0.5165539
-3.979412	k0ii-uull-mmyvnf	-0.5160071
-3.979412	k0ii-uull-vv	-0.5165539
-3.678382	k0ii-uull-yv	-0.7816039
-3.979412	k0ii-uull-yvss-s0xxpf-nnii-t0aa	-0.4720647
-3.979412	k0ii-uunf	-0.5160983
-3.979412	k0ii-vv	-0.5165539
-3.979412	k0ii-vv-k0aa-t0xxs0	-0.5165084
-3.979412	k0ii-vv-k0aanf-t0aa	-0.4720647
-3.979412	k0ii-vv-khoo	-0.5165539
-3.979412	k0iill	-0.5165084
-3.280442	k0iill-ee	-1.288614
-3.979412	k0iill-ee-nnxxnf	-0.5165539
-3.979412	k0iill-ii	-0.5165539
-3.979412	k0iill-ii-k0aa	-0.5164629
-3.979412	k0iill-k0vv-rrii-ee	-0.5165539
-3.979412	k0iill-kkaa-c0ii	-0.5165539
-3.979412	k0iill-mmaanf-xxnf	-0.5164173
-3.979412	k0iill-vv-yo	-0.4720647
-3.50229	k0iill-xxll	-0.9760821
-3.979412	k0iimf-chvvmf-c0ii	-0.5165084
-3.979412	k0iinf-c0vvll-hhaanf	-0.5165539
-3.979412	k0iinf-mmiill-hhaa-k0ee	-0.5165084
-3.979412	k0iiph-s0uukf-hhii	-0.5164629
-3.979412	k0iiph-vv-c0ii-mmyvnf-s0vv-p0uu-thvv	-0.5165539
-3.979412	k0iiph-xxnf	-0.5165539
-3.979412	k0oo	-0.5165539
-3.979412	k0oo-c0aang	-0.5164629
-3.979412	k0oo-c0aang-xi	-0.5165539
-3.979412	k0oo-c0oo-t0wonf	-0.5165539
-3.979412	k0oo-c0vvnf	-0.5165084
-3.979412	k0oo-chii-k0ii-rroo	-0.5165539
-3.979412	k0oo-chiill	-0.5147741
-3.979412	k0oo-hhaamf	-0.5165539
-3.979412	k0oo-hhaamf-xxll	-0.5165539
-3.50229	k0oo-hhyang	-0.9753983
-3.678382	k0oo-hhyang-xxnf	-0.7817861
-3.979412	k0oo-k0ii	-0.5165539
-3.979412	k0oo-k0ii-t0xxll-ii	-0.5157106
-3.979412	k0oo-k0ii-ttee-rrxxll	-0.5165084
-3.979412	k0oo-k0iis0-mmaa-rrii-nnaa	-0.5165084
-3.678382	k0oo-k0qq-rrxxll	-0.7817406
-3.979412	k0oo-k0qqs0-k0iill-xxll	-0.5164173
-3.979412	k0oo-k0qqs0-mmaa-rruu-ee-s0vv-t0oo	-0.5165539
-3.979412	k0oo-k0qqs0-mmaa-rruu-k0aa	-0.5165539
-3.979412	k0oo-mmaa-uunf	-0.5165539
-3.979412	k0oo-mmaa-wv-yo	-0.5164173
-3.979412	k0oo-mmaapf-c0ii-yo	-0.4720647
-3.979412	k0oo-mmaapf-s0xxpf-nnii-t0aa	-0.4720647
-3.979412	k0oo-ppii-rrxxll	-0.5165539
-3.979412	k0oo-rrii-ccaakf-ee	-0.5161895
-3.979412	k0oo-thoong-ii-t0aa	-0.4720647
-3.979412	k0oo-thoong-s0xx-rrvv-uunf	-0.5165539
-3.678382	k0oo-uunf	-0.7817861
-3.979412	k0oo-xi-chuumf-xxll	-0.5164173
-3.979412	k0oo-yang-ii	-0.5165539
-3.979412	k0ooc0-k0aamf	-0.5165084
-3.678382	k0ooc0-k0aamf-ii	-0.7817861
-3.979412	k0ooc0-k0aamf-ii-rraa-nnxxnf	-0.5161895
-3.678382	k0ooc0-k0aamf-ii-rraanf	-0.7817406
-3.979412	k0ooc0-k0aamf-xxll	-0.5163262
-3.979412	k0ookf-s0iikf-p0aath-ii-nnaa	-0.5164629
-3.979412	k0ooll-mmookf-xx-rroo	-0.5165084
-3.979412	k0oomf-p0aang-t0qq-ee	-0.5165084
-3.979412	k0oonf-yokf-xxll	-0.5165539
-3.979412	k0oong-c0aang-t0oo	-0.5165539
-3.979412	k0oong-k0ii	-0.5165539
-3.979412	k0oong-k0ii-c0ii	-0.5165539
-3.979412	k0oong-p0uu	-0.5159615
-3.979412	k0oong-s0aa	-0.5165539
-3.979412	k0oong-s0aa-hhaa-nnxx-rraa	-0.5165539
-3.979412	k0oong-s0aang-ii	-0.5163262
-3.979412	k0oong-ye	-0.5165539
-3.979412	k0oong-yvnf-hhii	-0.5163262
-3.979412	k0oopf-k0ee	-0.5165539
-3.979412	k0oopf-t0aa	-0.4720647
-3.979412	k0oos0-ee	-0.5164173
-3.979412	k0oos0-ii-t0aa	-0.4720647
-3.979412	k0oos0-ii-vvss-t0aa	-0.4720647
-3.979412	k0oos0-kkaa-c0ii	-0.5160983
-3.979412	k0oos0-xxll	-0.5165539
-3.979412	k0oos0-xxnf	-0.5163717
-3.201261	k0ootf	-1.429896
-3.979412	k0qq-c0iinf-k0qq-c0iinf	-0.5165539
-3.979412	k0qq-chvvkf-hhaa-nnxxnf	-0.5159615
-3.979412	k0qq-chvvnf	-0.5164629
-3.979412	k0qq-chvvnf-xxll	-0.5165539
-3.979412	k0qq-hhyvkf-hhqq	-0.5165084
-3.979412	k0qq-iinf-c0vvkf-iinf	-0.5165539
-3.678382	k0qq-iinf-ii	-0.7817861
-3.979412	k0qq-k0uu-rrii-t0xxll-t0oo	-0.5165539
-3.979412	k0qq-nnaa	-0.5165539
-3.979412	k0qq-nnaa-rrii-k0aa	-0.5165539
-3.979412	k0qq-rryang-hhaa-k0vv-nnaa	-0.5165084
-3.979412	k0qq-ssiikf	-0.5165539
-3.979412	k0qq-thoong-t0wonf	-0.5165084
-3.678382	k0qq-uull	-0.7817861
-3.678382	k0qq-uull-ee-s0vv	-0.7817861
-3.979412	k0qq-uull-ee-t0aa	-0.5164173
-3.979412	k0qq-uull-k0aa-ee	-0.5165539
-3.979412	k0qq-uull-k0aa-ee-s0vv	-0.5165539
-3.678382	k0qq-uull-k0aa-rroo	-0.781462
-3.979412	k0qq-uull-mmuull-xxll	-0.5164629
-3.979412	k0qq-uull-rroo	-0.5165539
-3.678382	k0qq-uull-t0uukf-ee	-0.7809606
-3.979412	k0qq-uull-t0uukf-ii-nnaa	-0.5165539
-3.678382	k0qq-uull-xxll	-0.7814672
-3.979412	k0uu-c0oo	-0.5165084
-3.678382	k0uu-c0xxng	-0.7817861
-3.678382	k0uu-hhqq	-0.781695
-3.979412	k0uu-k0yv-c0iinf	-0.5165084
-3.979412	k0uu-k0yvng-hhaa-mmyv	-0.5165539
-3.979412	k0uu-k0yvng-kkuunf-ii	-0.5164629
-3.979412	k0uu-nnxxnf	-0.5165539
-3.979412	k0uu-p0uunf-ii	-0.5159615
-3.979412	k0uu-p0yvll-hhqqss-k0oo	-0.5165084
-3.979412	k0uu-phoo-hhaanf	-0.5155509
-3.979412	k0uu-phoo-rraanf	-0.5165539
-3.979412	k0uu-rreeng-ii-k0aa	-0.5163717
-3.979412	k0uu-rrxxng-xx-rroo-s0vv	-0.5147741
-3.979412	k0uu-rryv	-0.5163262
-3.979412	k0uu-s0vvkf-ee	-0.5163717
-3.979412	k0uu-s0vvkf-ee-nnxxnf	-0.5165539
-3.979412	k0uu-t0vvng-ii-ee	-0.5165539
-3.50229	k0uull	-0.9758543
-3.979412	k0uull-rree-k0aa	-0.5165539
-3.678382	k0uull-rrvv	-0.7816495
-3.979412	k0uull-rrvvss-c0ii-mmaanf	-0.5159159
-3.979412	k0uulm-vv	-0.5165539
-3.979412	k0uulm-xxnf-c0ii-rraa	-0.5162578
-3.979412	k0uumf-s0iill-k0uumf-s0iill	-0.5165539
-3.979412	k0uumf-ttxx-k0ii	-0.5165539
-3.979412	k0uunf-chiimf-ii	-0.5165539
-3.979412	k0uunf-chiimf-t0oo	-0.5165084
-3.979412	k0uunf-t0ee	-0.5160071
-3.979412	k0uunf-t0ee-k0uunf-t0ee	-0.5165539
-3.979412	k0uung-k0xxmf-hhqq-c0yvss-t0aa	-0.4720647
-3.979412	k0uung-rrii	-0.5165539
-3.979412	k0uung-rrii-hhaa-t0aa-k0aa-c0vv-k0ii	-0.5165084
-3.979412	k0uung-rrii-k0aa	-0.5165539
-3.979412	k0uung-s0iis0-k0vv-rrii-k0oo-t0xxll	-0.5165539
-3.979412	k0uung-t0uung-ii	-0.5165084
-3.979412	k0uupf-xxll	-0.5163262
-3.979412	k0uupf-xxnf	-0.5160983
-3.678382	k0vv	-0.7817861
-3.678382	k0vv-c0ii	-0.7370183
-3.979412	k0vv-c0ii-p0aanf	-0.5165539
-3.979412	k0vv-c0iinf	-0.5165539
-3.979412	k0vv-c0uukf-xi	-0.5165539
-3.678382	k0vv-chiill-k0oo	-0.7817861
-3.979412	k0vv-chiill-vv-c0ii-k0oo	-0.5165539
-3.979412	k0vv-chiill-vvss-k0ii	-0.5165539
-3.979412	k0vv-chiill-vvss-xx-nnaa	-0.5165084
-3.979412	k0vv-chiimf-vvps-ii	-0.5165539
-3.979412	k0vv-chiinf	-0.5165539
-3.979412	k0vv-chiinf-c0ii	-0.5160983
-3.979412	k0vv-k0ii-ee-nnxxnf	-0.5165084
-3.678382	k0vv-k0ii-ee-s0vv	-0.7816495
-3.979412	k0vv-k0oo	-0.5164629
-3.979412	k0vv-mmyvnf-s0vv	-0.5147741
-3.979412	k0vv-nnaa-hhqq-c0iimf-xxll	-0.5163262
-3.678382	k0vv-phuumf-xxll	-0.7817861
-3.979412	k0vv-rrxxmf-xx-rroo	-0.5165539
-3.134314	k0vv-t0aa	-1.131557
-3.979412	k0vv-t0uu-k0ii	-0.5165539
-3.979412	k0vv-t0uull-kkaa	-0.4720647
-3.979412	k0vv-t0wv-t0xxll-ii-k0oo	-0.5165539
-3.979412	k0vv-t0xxpf-hhaall-c0ii-rraa-t0oo	-0.5135835
-3.979412	k0vv-uull-mmyvnf-chvv-rrvvmf	-0.5164173
-3.50229	k0vv-xi	-0.9753983
-3.134314	k0vv-ya	-1.131557
-3.979412	k0vv-yo	-0.4720647
-3.979412	k0vv-yv-yo	-0.4720647
-3.678382	k0vv-yvss-vv-yo	-0.7370183
-3.979412	k0vvkf-c0vvng-ii	-0.5165539
-3.979412	k0vvkf-c0vvng-ii-nnee	-0.4720647
-3.979412	k0vvkf-c0vvng-s0xx-rrvvnf	-0.5165084
-3.979412	k0vvkf-c0vvng-t0uu	-0.5165539
-3.979412	k0vvkf-c0vvng-t0wo-k0ii-t0oo	-0.5158703
-3.134314	k0vvll	-1.538406
-3.979412	k0vvll-chyv	-0.5161439
-3.979412	k0vvll-chyv-iiss-vv	-0.5165539
-3.979412	k0vvll-k0oo	-0.5152768
-3.979412	k0vvll-k0vvll-hhaanf	-0.5164629
-3.979412	k0vvll-kkaa	-0.4720647
-3.979412	k0vvll-rree-rrxxll	-0.5163262
-3.979412	k0vvll-rriipf-nnii-t0aa	-0.4720647
-3.979412	k0vvll-vv-k0aa-nnoo-rraa-mmyvnf	-0.5165539
-3.979412	k0vvll-vv-k0aa-nnxxnf	-0.5165084
-3.979412	k0vvll-vv-k0aanf	-0.5165084
-3.979412	k0vvll-vv-t0aa-nnii-nnxxnf	-0.5165539
-3.979412	k0vvll-vv-ya	-0.5165539
-3.979412	k0vvll-vvss-t0aa	-0.4720647
-3.979412	k0vvll-xxmf	-0.5155509
-3.979412	k0vvll-xxmf-ii-vvss-t0aa	-0.4720647
-3.979412	k0vvll-xxmf-xxll	-0.5165539
-3.979412	k0vvmf-k0ee	-0.5165539
-3.979412	k0vvmf-xxnf	-0.5165084
-3.979412	k0vvmf-yvll-xxll	-0.5160527
-3.979412	k0vvnf-k0aang-hhqq	-0.5165539
-3.979412	k0vvnf-nnee	-0.5163262
-3.979412	k0vvnf-nnee-c0uu-vvss-t0aa	-0.4720647
-3.979412	k0vvnf-nnee-c0uu-vvss-t0vv-nnii	-0.5165084
-3.678382	k0vvnf-nnvv	-0.7817406
-3.979412	k0vvnf-nnvv-k0aa-t0vv-nnii-mmaanf	-0.5165539
-3.979412	k0vvnf-nnvv-k0aanf-t0aa	-0.4720647
-3.979412	k0vvnf-nnvv-k0ii	-0.5164173
-3.50229	k0vvnf-nnvv-nnxxnf	-0.9756719
-3.979412	k0vvnf-nnvv-oo-k0oo	-0.5165084
-3.678382	k0vvnf-nnvv-phyvnf	-0.7817406
-3.979412	k0vvnf-nnvv-s0vv	-0.5165539
-3.979412	k0vvnf-nnvv-t0vvnf	-0.5163262
-3.979412	k0vvnf-nnvvnf-t0aa	-0.4720647
-3.979412	k0vvnf-nnvvs0-mmaa-xxll	-0.5165539
-3.979412	k0vvnf-s0vvll-hhaa-k0ee	-0.5164173
-3.979412	k0vvnf-t0xx-rrii-t0aa-k0aa	-0.5165539
-2.748963	k0vvs0	-1.835837
-3.979412	k0vvs0-ee	-0.5165539
-3.979412	k0vvs0-ee-s0vv	-0.5165084
-2.833284	k0vvs0-ii	-1.580271
-3.979412	k0vvs0-ii-c0ii	-0.4720647
-3.678382	k0vvs0-ii-c0ii-mmaanf	-0.781695
-3.678382	k0vvs0-ii-k0oo	-0.7817861
-3.979412	k0vvs0-ii-nnaa	-0.5165539
-3.678382	k0vvs0-ii-rraa	-0.781695
-3.979412	k0vvs0-ii-rraa-k0oo	-0.5158703
-3.979412	k0vvs0-ii-rraanf	-0.5164629
-3.979412	k0vvs0-ii-rrii-rraa	-0.4720647
-3.678382	k0vvs0-ii-rrqq	-0.7370183
-2.356163	k0vvs0-ii-t0aa	-1.884884
-3.076322	k0vvs0-ii-vvss-t0aa	-1.185914
-3.979412	k0vvs0-ii-vvss-vv-yo	-0.4720647
-3.979412	k0vvs0-ii-yo	-0.5165539
-3.979412	k0vvs0-iill-kkaa	-0.4720647
-3.979412	k0vvs0-iinf-k0aa-rrxxll	-0.5164629
-3.678382	k0vvs0-iipf-nnii-t0aa	-0.7370183
-3.678382	k0vvs0-mmaanf	-0.7813253
-3.979412	k0vvs0-mmaanf-xx-rroo-nnxxnf	-0.5165539
-3.979412	k0vvs0-p0oo-t0aa	-0.5162806
-3.678382	k0vvs0-t0oo	-0.7817406
-3.979412	k0vvs0-t0uu	-0.5165084
-3.979412	k0vvs0-t0xxll-t0oo	-0.5165539
-3.979412	k0vvs0-xx-rroo	-0.5158246
-2.80332	k0vvs0-xxll	-1.614457
-2.617684	k0vvs0-xxnf	-4.509486
-3.979412	k0vvtf-c0aapf-xxll	-0.5163262
-3.979412	k0vvtf-hhyv	-0.5152768
-3.678382	k0vvtf-k0oo	-0.7804632
-3.979412	k0vvtf-vv	-0.5165539
-3.979412	k0vvtf-vv-ooll-rriinf	-0.5165539
-3.979412	k0vvth-chii-rree-ee-mmaanf	-0.5164629
-3.979412	k0vvth-chii-rree-iill	-0.5147741
-3.979412	k0vvth-xxll	-0.5165539
-3.979412	k0wa-c0vvng-ee-s0vv	-0.5165539
-3.979412	k0wa-c0vvng-ii	-0.5164629
-3.979412	k0wa-hhaa-c0ii	-0.5165539
-3.979412	k0wa-rroo-rroo	-0.5165539
-3.979412	k0wa-s0iill-nnaa-mmuu-yo	-0.5165539
-3.979412	k0wa-s0uu-nnaa-mmuu	-0.5165539
-3.979412	k0wanf-k0ye-rrxxll	-0.5155509
-3.979412	k0wanf-rryvnf-hhaa-yv	-0.5165539
-3.50229	k0wang-hhwa-mmuunf	-0.9761277
-3.979412	k0wi-chaanh-t0aa	-0.4720647
-3.979412	k0wi-k0aa	-0.5165539
-3.678382	k0wi-rrxxll	-0.7817406
-3.678382	k0wi-s0iinf-ii	-0.7371911
-3.979412	k0wi-thuung-ii-rrxxll	-0.5165539
-3.979412	k0wi-yv-uunf	-0.5164629
-3.979412	k0wi-yv-wvss-t0aa	-0.4720647
-3.979412	k0wi-yvpf-c0ii	-0.5163717
-3.979412	k0wo-k0ii	-0.5164173
-3.979412	k0wo-rroo-uumf-xxll	-0.5165084
-3.979412	k0wong-c0aang-hhaanf	-0.5165539
-3.979412	k0wong-c0aang-hhii	-0.5165539
-3.979412	k0wqnf-hhaanf	-0.5165084
-3.979412	k0wvnf-wo-ee	-0.5165539
-2.159868	k0xx	-2.702549
-3.979412	k0xx-c0ee-s0vv-ya	-0.5165539
-3.678382	k0xx-c0vv	-0.7817406
-3.201261	k0xx-chii-c0ii	-1.19603
-3.979412	k0xx-chii-k0ee	-0.5160527
-3.979412	k0xx-chiill	-0.5161439
-3.979412	k0xx-chyv-rraa	-0.4720647
-3.979412	k0xx-chyvss-s0xxpf-nnii-t0aa	-0.4720647
-3.979412	k0xx-hhqq	-0.5165539
-3.979412	k0xx-k0oos0-ee	-0.5165539
-3.979412	k0xx-k0oos0-xxll	-0.5165539
-3.979412	k0xx-k0vv	-0.5162806
-3.979412	k0xx-k0vvll	-0.5165539
-3.280442	k0xx-k0vvnf	-1.288003
-3.979412	k0xx-k0vvs0-ee-mmaanf	-0.5165539
-3.50229	k0xx-k0vvs0-ii	-0.9758999
-3.979412	k0xx-k0vvs0-ii-rraa-k0oo	-0.5164629
-3.979412	k0xx-k0vvs0-ppuunf-ii	-0.5165539
-3.50229	k0xx-k0vvs0-xxll	-0.9760821
-3.134314	k0xx-k0vvs0-xxnf	-1.582216
-3.134314	k0xx-mmaanf	-1.58176
-3.979412	k0xx-mmaanf-hhaa-mmyvnf	-0.5158246
-3.979412	k0xx-mmaanf-iinf	-0.5163262
-3.979412	k0xx-nnaall	-0.5165539
-3.979412	k0xx-nnaall-t0oo	-0.5165539
-3.979412	k0xx-nnxxll-ee-s0vv	-0.5164173
-3.979412	k0xx-nnxxll-ee-s0vv-nnxxnf	-0.5165539
-3.979412	k0xx-nnxxll-ii	-0.5165084
-3.134314	k0xx-nnxxnf	-1.580799
-3.201261	k0xx-nnyang	-1.433293
-3.979412	k0xx-p0oo-t0aa	-0.5165539
-3.979412	k0xx-rrii	-0.5165539
-3.979412	k0xx-rrii-hhaa-rryv-mmyvnf	-0.5165539
-3.50229	k0xx-rrii-hhaa-yv	-0.9758999
-3.979412	k0xx-rrii-k0ee	-0.5161439
-3.979412	k0xx-rrii-k0ii-t0oo	-0.5158703
-2.748963	k0xx-rrii-k0oo	-1.833602
-3.979412	k0xx-rrii-k0oo-c0aa	-0.5165539
-3.678382	k0xx-rrii-k0oo-nnxxnf	-0.7817406
-3.979412	k0xx-rrii-k0oonf	-0.5165084
-3.979412	k0xx-rrii-mmyv	-0.5164629
-3.979412	k0xx-rrii-rryv-k0oo	-0.5165539
-3.979412	k0xx-rrii-uumf-k0wa	-0.5165539
-3.979412	k0xx-rrii-uunf	-0.5165539
-3.678382	k0xx-rriimf-c0aa-k0aa	-0.781462
-3.979412	k0xx-rriimf-xx-rroo-ssvv	-0.5164629
-3.678382	k0xx-rriimf-xxll	-0.7817406
-3.979412	k0xx-rriinf	-0.5162806
-3.979412	k0xx-rriinf-t0aa-mmyvnf	-0.5162806
-3.979412	k0xx-rrqq	-0.5165084
-3.280442	k0xx-rrqq-s0vv	-1.288249
-3.678382	k0xx-rrqq-t0oo	-0.781148
-3.678382	k0xx-rrqq-yo	-0.737292
-3.979412	k0xx-rrqqss-vv-yo	-0.4720647
-3.979412	k0xx-rrvv-c0aa	-0.5165539
-3.979412	k0xx-rrvv-hhaa-k0ii	-0.5159615
-3.979412	k0xx-rrvv-hhaa-t0aa	-0.4720647
-3.678382	k0xx-rrvv-hhaanf	-0.7815583
-3.979412	k0xx-rrvv-k0oo-t0oo	-0.5165539
-3.979412	k0xx-rrvv-mmxx-rroo	-0.5165539
-3.280442	k0xx-rrvv-mmyvnf	-1.287244
-2.617684	k0xx-rrvv-nnaa	-4.078579
-3.678382	k0xx-rrvv-nnii-kkaa	-0.7816039
-3.979412	k0xx-rrvv-nnxxnf	-0.5159615
-3.979412	k0xx-rrvv-s0ee-yo	-0.5156878
-3.979412	k0xx-rrvv-t0aa	-0.5165539
-3.377352	k0xx-rrvv-t0aa-k0aa	-1.138889
-3.979412	k0xx-rrvv-t0vv-nnii	-0.5165084
-3.979412	k0xx-rrvvhh-c0ii-k0aa	-0.5165084
-3.979412	k0xx-rrvvhh-c0ii-t0uu	-0.5165084
-3.134314	k0xx-rrvvhh-k0ee	-1.582353
-3.377352	k0xx-rrvvhh-k0ii	-0.9536045
-3.678382	k0xx-rrvvhh-k0oo	-0.7817406
-3.979412	k0xx-rrvvhh-t0aa	-0.4720647
-3.979412	k0xx-rrvvhh-t0aa-k0uunf	-0.5165539
-3.50229	k0xx-rrvvll	-0.9758543
-3.979412	k0xx-rrvvll-kkaa	-0.4720647
-3.678382	k0xx-rrvvmf	-0.7814216
-3.201261	k0xx-rrvvnf	-1.432961
-3.678382	k0xx-rrvvnf-c0ii	-0.781695
-3.979412	k0xx-rrvvnf-k0aa	-0.5160071
-2.678382	k0xx-rrvvnf-t0ee	-2.193741
-3.50229	k0xx-rrvvnf-t0ee-t0oo	-0.9758087
-3.678382	k0xx-rrxxll	-0.7817861
-3.678382	k0xx-rryv	-0.7817406
-3.50229	k0xx-t0aa-c0ii	-0.9758999
-2.938019	k0xx-t0qq-rroo	-2.709327
-3.979412	k0xx-t0qq-rroo-xi	-0.5164629
-3.979412	k0xx-t0xxll-ii	-0.5165539
-3.50229	k0xx-t0xxll-xxnf	-0.9753983
-3.50229	k0xx-ttqq	-0.9759911
-3.979412	k0xx-ttqq-mmaanf-khxxmf-xxnf	-0.5158246
-3.979412	k0xx-ttqq-t0oo	-0.516235
-3.979412	k0xxkf-ee-s0vv-t0oo	-0.5165539
-3.979412	k0xxlk-nnxxnf-t0aa	-0.4720647
-3.979412	k0xxll-rrvv-s0vv	-0.5165084
-3.979412	k0xxll-ssee	-0.5165539
-3.678382	k0xxll-xxll	-0.7817861
-3.979412	k0xxmf-p0aang	-0.5165539
-3.979412	k0xxnf-chvv-ee	-0.5165539
-3.979412	k0xxnf-mmyvnf	-0.5165539
-3.979412	k0xxnf-mmyvnf-ii-t0aa	-0.4720647
-3.979412	k0xxnf-t0qq	-0.5165539
-3.979412	k0xxnf-wvnf-ii	-0.5165539
-3.979412	k0xxpf-c0oo-hhqq	-0.5165539
-3.979412	k0xxpf-hhaanf	-0.5163262
-3.979412	k0xxpf-hhii	-0.5163717
-3.979412	k0xxpf-hhqq-t0oo	-0.5165539
-3.979412	k0xxpf-k0xxpf-hhaanf	-0.5165539
-3.979412	k0xxpf-s0iikf	-0.5165539
-3.979412	k0xxpf-s0iikf-hhaamf-ee	-0.5165539
-3.50229	k0ye-c0iipf	-0.9759911
-3.979412	k0ye-c0iipf-ii	-0.5158246
-3.678382	k0ye-c0iipf-k0wa	-0.7817861
-3.979412	k0ye-c0iipf-k0wa-nnxxnf	-0.5165539
-3.678382	k0ye-c0iipf-xi	-0.7817861
-3.979412	k0ye-c0iipf-xxll	-0.5165539
-3.979412	k0ye-mmoong	-0.5164629
-3.979412	k0ye-mmoong-xxll	-0.5163262
-3.979412	k0ye-p0aall-hhaall	-0.5147741
-3.979412	k0ye-s0ee-yo-rraa-nnxxnf	-0.5161895
-3.979412	k0ye-s0ookf-t0woll-s0uu-rrookf	-0.5165539
-3.979412	k0yo-mmuu-s0iill-ee	-0.5165539
-3.678382	k0yo-s0iill	-0.7815583
-3.979412	k0yo-s0iill-ee	-0.5165539
-3.979412	k0yo-s0iill-xxnf	-0.5165539
-3.979412	k0yo-thoong	-0.5165539
-3.979412	k0yo-thoong-c0ii-ookf-xxll	-0.5164629
-3.979412	k0yo-thoong-phyvnf-ii	-0.5165084
-3.979412	k0yo-yukf-ee	-0.5165539
-3.979412	k0yo-yukf-k0wa	-0.5160071
-3.50229	k0yo-yukf-xxll	-0.9762403
-3.979412	k0yv-uu	-0.5165539
-3.678382	k0yv-uu-nnqq	-0.7817861
-3.979412	k0yv-uull-ee	-0.5158246
-3.979412	k0yv-uull-ii	-0.5165539
-3.979412	k0yvkk-nnxxnf	-0.5165539
-3.979412	k0yvll-ee	-0.5165539
-3.979412	k0yvll-hhoonf-hhaa-k0oo	-0.5160983
-3.979412	k0yvll-k0iimf-ee	-0.5165539
-3.377352	k0yvll-khoo	-1.139527
-3.979412	k0yvll-mmaall-xxll	-0.5165539
-3.979412	k0yvll-s0vvkf-s0qqng-xi	-0.5165539
-3.979412	k0yvnf-iinf-hhaall	-0.5158703
-3.678382	k0yvnf-t0ii-k0oo	-0.7816039
-3.678382	k0yvnf-t0iill	-0.7797774
-3.979412	k0yvnf-t0yv	-0.5165539
-3.979412	k0yvng-c0ee-c0vvkf-iinf	-0.5165539
-3.979412	k0yvng-chaall	-0.5164173
-3.979412	k0yvng-chaall-chaa-k0aa	-0.5165539
-3.979412	k0yvng-chaall-chaa-nnxxnf	-0.5165084
-3.979412	k0yvng-hhvvmf-hhaa-c0ii	-0.5163717
-3.979412	k0yvng-hhyang-ii	-0.5165539
-3.979412	k0yvng-hhyang-k0wa	-0.5161439
-3.979412	k0yvng-hhyang-xxll	-0.5165539
-3.979412	k0yvng-hhyang-xxnf	-0.5165539
-3.979412	k0yvng-k0ii-t0oo	-0.5165539
-3.979412	k0yvng-nnaamf	-0.5164629
-3.979412	k0yvng-uu-ee-nnxxnf	-0.5165539
-3.678382	k0yvth-ee	-0.7812848
-3.979412	k0yvth-ee-nnxxnf	-0.5161895
-3.979412	k0yvth-xx-rroo	-0.5165539
-3.979412	khaakf-theell-xxll	-0.5165539
-3.979412	khii-uu-mmyvnf-s0vv	-0.5165539
-3.979412	khoo-ee-mmaanf	-0.5165539
-3.979412	khoo-hhxxll-rrii-k0qq	-0.5140418
-3.979412	khoo-phii-rrxxll	-0.5165539
-3.979412	khoo-phii-yvss-t0aa	-0.4720647
-3.50229	khoo-rrxxll	-0.9761277
-3.979412	khooll-rree-rraa-k0yunf-xxnf	-0.5164629
-3.678382	khoong-p0aath-k0wa	-0.7817861
-3.979412	khoos0-k0uu-mmvvng-ii	-0.5165539
-3.979412	khoos0-k0uu-mmvvng-xxll	-0.5165539
-3.979412	khoos0-mmuull-ii	-0.5165539
-3.979412	khuung-hhaa-k0oo	-0.5165539
-3.979412	khvv-t0aa-rraanf	-0.5165539
-3.979412	khxx-k0ee	-0.5165084
-3.979412	khxx-k0oo	-0.5165084
-3.979412	khxx-t0aa	-0.4720647
-2.865469	khxxnf	-1.505218
-3.979412	khxxnf-k0iill	-0.5165084
-3.979412	khyv-c0ii	-0.5161439
-3.979412	khyvll-rree	-0.5165539
-3.979412	kkaa	-0.5165539
-3.979412	kkaa-c0iis0-k0vvs0	-0.5164629
-3.979412	kkaa-mmaanf	-0.5165539
-3.979412	kkaa-rrxx-rrxx-rrxx	-0.5165539
-3.979412	kkaa-t0aalk	-0.5161895
-3.979412	kkaa-t0aalk-xxnf	-0.5165539
-3.50229	kkaakk-aa	-0.9758543
-3.979412	kkaakk-aa-nnaa	-0.5165539
-3.979412	kkaakk-aass-t0aa-k0oo	-0.5165084
-3.979412	kkaakk-c0ii	-0.5165539
-3.979412	kkaakk-c0ii-t0oo	-0.5165539
-3.979412	kkaakk-k0ii	-0.5165539
-3.678382	kkaakk-k0oo	-0.779457
-3.979412	kkaakk-nnxxnf	-0.5158246
-3.979412	kkaakk-nnxxnf-t0aanf	-0.5165539
-3.979412	kkaakk-t0aa-k0aa	-0.5165539
-3.979412	kkaakk-t0vvnf	-0.5159159
-3.979412	kkaakk-xx-rryv-oo	-0.5165539
-3.979412	kkaakk-yv	-0.5165539
-3.678382	kkaall-k0oo	-0.7817406
-3.979412	kkaall-kkaall	-0.5165084
-3.979412	kkaall-kkaall-k0vv-rrii-mmyv	-0.5165084
-3.678382	kkaamf-ccaakf	-0.7817406
-3.979412	kkaamf-ccaakf-hhaall	-0.5165084
-3.979412	kkaamf-ppaakf	-0.5165539
-3.979412	kkaang-chuung	-0.5163717
-3.979412	kkaang-thoong	-0.5165539
-3.979412	kkaang-thoong-ee	-0.5165084
-3.979412	kkii-k0oo	-0.4720647
-3.979412	kkii-nnii-ttqq-rrxxll	-0.5165539
-3.979412	kkoo-p0aakf-kkoo-p0aakf	-0.5164629
-3.979412	kkoo-p0uull-kkoo-p0uull-hhaanf	-0.5165539
-3.979412	kkoo-rraakf-s0vv-nnii-rrxxll	-0.5165539
-3.979412	kkoo-rrii-nnxxnf	-0.5165539
-3.979412	kkoo-yvss-s0xxpf-nnii-t0aa	-0.4720647
-3.979412	kkooc0-hhiinf	-0.5165539
-3.979412	kkooc0-hhyv	-0.5149342
-3.979412	kkooch-ee-s0vv	-0.5165539
-3.979412	kkooch-hhyang-k0ii-wa	-0.5165539
-3.979412	kkooch-ii	-0.5165084
-3.979412	kkooch-ii-mmyv	-0.5165539
-3.979412	kkooch-iiph-ii	-0.5165539
-3.979412	kkooch-iiph-xxll	-0.5165539
-3.979412	kkooch-k0aa-c0ii-rrxxll	-0.5164629
-3.979412	kkooch-k0wa	-0.5165539
-3.979412	kkooch-phii-nnxxnf	-0.5165539
-3.678382	kkooch-t0xxll-ii	-0.781695
-3.979412	kkooch-xxnf	-0.5165539
-3.025169	kkookf	-1.936844
-3.979412	kkookf-t0qq-k0ii-ee	-0.5164629
-3.678382	kkooll	-0.7816039
-3.678382	kkooll-ee	-0.7817861
-3.979412	kkooll-ee-s0vv	-0.5165539
-3.678382	kkooll-ii	-0.7817406
-3.979412	kkooll-s0aa-nnaapf-t0aa	-0.4720647
-3.979412	kkooll-t0xxll-ii	-0.5163717
-3.678382	kkooll-xxll	-0.7817861
-3.979412	kkoomf-ccaakf	-0.5165539
-3.979412	kkoomf-ccaakf-t0oo	-0.5163717
-3.678382	kkoong-kkoong	-0.7817861
-3.979412	kkqq-k0oonf	-0.5158703
-3.979412	kkqq-kkxxs0-ii	-0.5163262
-3.979412	kkqq-t0aall-xxmf-ii	-0.5160983
-3.979412	kkqq-thxx-rryv-c0iinf	-0.5165084
-3.979412	kkuu-mmyv	-0.5165539
-3.979412	kkuull-kkvvkf-hhqqss-t0aa	-0.4720647
-3.979412	kkuumf	-0.5162806
-3.979412	kkuumf-ii	-0.5165539
-3.979412	kkuumf-ii-rraanf	-0.5155509
-3.50229	kkuumf-k0wa	-0.9755834
-3.678382	kkuumf-xxll	-0.7817861
-3.979412	kkuumf-xxnf	-0.5165539
-3.979412	kkvv-mmvvhh-k0ee	-0.5163717
-3.979412	kkvv-nnqq	-0.5164173
-3.979412	kkvvkk-vv-t0aa-k0aa	-0.5163717
-3.979412	kkwakf	-0.5165539
-3.979412	kkwe-vv	-0.5164173
-3.979412	kkwo-k0aa	-0.5165539
-3.979412	kkwo-vvss-vv-yo	-0.4720647
-3.377352	kkwq	-1.138569
-3.979412	kkwvng	-0.5165084
-3.979412	kkxx-t0vvkf-yvss-t0aa	-0.4720647
-3.979412	kkxxlh-vv-oo-rrxx-mmyv	-0.5165539
-3.979412	kkxxlh-vv-ya	-0.5164173
-3.979412	kkxxlh-xxll	-0.5165084
-3.979412	kkxxll-vv-nnqq-rryv	-0.5165539
-3.979412	kkxxll-vv-nnqqpf-nnii-t0aa	-0.4720647
-3.979412	kkxxnf-t0aa	-0.4720647
-3.979412	kkxxnh-iimf-vvps-ii	-0.5165539
-3.979412	kkxxnh-k0uu	-0.5165539
-3.979412	kkxxnh-vv-c0ii-nnxxnf	-0.5165539
-3.979412	kkxxnh-vv-c0iipf-nnii-t0aa	-0.4720647
-3.979412	kkxxth	-0.5165084
-3.50229	kkxxth-ee	-0.9735693
-3.979412	kkxxth-kkaa-c0ii	-0.5165539
-3.979412	kkxxth-nnaa-mmyvnf	-0.5165084
-3.979412	kkxxth-nnaanf-t0aa	-0.4720647
-3.979412	kkxxth-nnqq-k0oo	-0.5165084
-3.979412	kkxxth-xxll	-0.5165539
-3.979412	mmaa-c0aang-ccxxmf	-0.5160071
-3.979412	mmaa-c0ii-mmaakf	-0.5165539
-3.979412	mmaa-c0uu-chyvss-t0aa	-0.4720647
-3.979412	mmaa-chaanf-k0aa-c0ii-rroo	-0.5165539
-3.979412	mmaa-chaanf-k0aa-c0ii-t0aa	-0.4720647
-3.979412	mmaa-chii	-0.5165539
-3.50229	mmaa-ii-nnvv-s0xx	-0.9761277
-3.979412	mmaa-k0uu	-0.5165539
-3.979412	mmaa-nnii-kkaa	-0.4720647
-3.979412	mmaa-nnxxnf	-0.5146827
-3.377352	mmaa-nnyang	-1.139482
-3.979412	mmaa-rrii	-0.5165539
-3.979412	mmaa-rrii-k0aa	-0.5165539
-3.979412	mmaa-rrii-yvss-t0aa	-0.4720647
-3.979412	mmaa-rrxxll	-0.5165084
-3.50229	mmaa-rrxxnf	-0.9759455
-3.678382	mmaa-rrxxnf-khoo-rrxxll	-0.7816495
-3.979412	mmaa-rryvnf	-0.5165539
-3.979412	mmaa-rryvnf-hhaamf-xx-rroo-ssvv	-0.5162806
-3.979412	mmaa-s0ii-k0oo	-0.5165539
-3.678382	mmaa-s0ii-nnxxnf	-0.7817861
-3.979412	mmaa-s0ii-t0vvnf	-0.5165539
-3.979412	mmaa-s0iill	-0.5147741
-3.979412	mmaa-s0iinf	-0.5164629
-3.979412	mmaa-s0iinf-t0aa	-0.4720647
-3.979412	mmaa-s0yvss-xxll-kkaa	-0.4720647
-3.979412	mmaa-t0ii-t0oo	-0.5165539
-3.166498	mmaa-xxll	-1.392123
-3.50229	mmaa-xxll-ee	-0.9760821
-3.979412	mmaa-xxll-ii-t0aa	-0.4720647
-3.979412	mmaa-xxll-ii-vvss-t0aa	-0.4720647
-3.50229	mmaa-xxll-rroo	-0.9760366
-3.979412	mmaa-xxll-t0oo	-0.5164173
-3.979412	mmaa-xxmf-ee	-0.5165539
-3.979412	mmaa-xxmf-ee-s0vv	-0.5164629
-3.201261	mmaa-xxmf-ii	-1.433657
-3.979412	mmaa-xxmf-k0wa	-0.5165539
-3.979412	mmaa-xxmf-mmvvkf-xxnf	-0.5163717
-3.979412	mmaa-xxmf-ssii	-0.5165084
-3.979412	mmaa-xxmf-ssii-k0aa	-0.5164173
-3.979412	mmaa-xxmf-t0oo	-0.5165539
-3.979412	mmaa-xxmf-t0qq-rroo	-0.5164629
-3.678382	mmaa-xxmf-xxll	-0.7816039
-3.678382	mmaa-xxmf-xxnf	-0.7816495
-3.979412	mmaac0-chuu-nnxxnf	-0.5165084
-3.979412	mmaac0-p0uu-t0iic0-k0oo	-0.5165539
-3.979412	mmaac0-t0qq-k0oo	-0.5165084
-3.979412	mmaac0-xx-mmyv	-0.5165539
-3.979412	mmaac0-xxnf	-0.5159615
-3.979412	mmaac0-xxnf-ccookf	-0.5165539
-3.50229	mmaakf	-0.9759911
-3.979412	mmaakf-aa-s0vv-mmyvnf-s0vv-p0uu-thvv	-0.5165539
-3.979412	mmaakf-hhyv	-0.5158703
-3.678382	mmaakf-hhyv-s0vv	-0.781695
-3.678382	mmaakf-t0qq-k0ii	-0.7814164
-3.979412	mmaakf-xx-rryv-k0oo	-0.5162806
-3.979412	mmaalk-aa-c0ii-k0oo	-0.5165539
-3.979412	mmaalk-aa-c0yv	-0.5165084
-3.280442	mmaalk-k0oo	-1.288522
-3.377352	mmaalk-xxnf	-1.138843
-3.678382	mmaall	-0.7798232
-3.50229	mmaall-aass-t0aa	-0.9318422
-3.50229	mmaall-aass-vv-yo	-0.9318422
-3.678382	mmaall-c0oo-chaa	-0.7810568
-3.979412	mmaall-ccaang	-0.5165539
-3.979412	mmaall-ee	-0.5161439
-3.979412	mmaall-hhaa-mmyv	-0.5165084
-3.979412	mmaall-hhaa-nnxxnf	-0.5163717
-3.979412	mmaall-hhaall	-0.5147741
-3.979412	mmaall-hhqqss-s0xxpf-nnii-t0aa	-0.4720647
-3.280442	mmaall-hhqqss-vv-yo	-0.9968579
-3.280442	mmaall-ii	-1.285641
-3.979412	mmaall-ii-c0ii	-0.4720647
-3.979412	mmaall-ii-mmyvnf	-0.5165539
-3.979412	mmaall-ii-oo	-0.5165539
-3.50229	mmaall-ii-t0aa	-0.9318422
-3.979412	mmaall-ii-vvss-t0aa	-0.4720647
-3.979412	mmaall-ii-ya	-0.4720647
-3.979412	mmaall-iill-s0ee	-0.4720647
-3.979412	mmaall-iinf-t0ee	-0.5165539
-3.979412	mmaall-k0ee	-0.5162806
-3.678382	mmaall-k0oo	-0.7363322
-3.979412	mmaall-k0uu	-0.5163262
-3.678382	mmaall-mmaanf	-0.7816495
-3.979412	mmaall-rraa-k0oo	-0.5140418
-3.979412	mmaall-rrii-k0ii-rrxxll	-0.5165084
-3.979412	mmaall-rriill	-0.5165084
-3.979412	mmaall-ssii-ee	-0.5165539
-3.979412	mmaall-ssii-nnxxnf	-0.5163262
-3.979412	mmaall-ssii-t0xxll-ii	-0.5165539
-3.979412	mmaall-ssxxmf	-0.4720647
-3.678382	mmaall-t0oo	-0.7806916
-3.979412	mmaall-t0qq-rroo	-0.5163717
-3.678382	mmaall-thaa-k0ii-t0oo	-0.7809655
-3.979412	mmaall-thuu-k0aa	-0.4720647
-3.979412	mmaall-thuu-t0aa	-0.4720647
-3.979412	mmaall-ttuukf-ee-s0vv	-0.5164629
-3.979412	mmaall-xi	-0.5165539
-3.025169	mmaall-xxll	-1.937997
-3.678382	mmaall-xxnf	-0.7816495
-3.979412	mmaall-ya	-0.4720647
-3.979412	mmaamf	-0.5165084
-3.979412	mmaanf	-0.5146827
-3.979412	mmaanf-c0ookf-hhaa-c0ii-rrxxll	-0.5161439
-3.678382	mmaanf-c0yv	-0.7810974
-3.979412	mmaanf-hhaanf	-0.5165084
-3.979412	mmaanf-iill	-0.5164173
-3.678382	mmaanf-khxxmf	-0.7817861
-3.979412	mmaanf-mmaanf-hhaanf	-0.5164173
-3.979412	mmaanf-nnaa	-0.5161439
-3.979412	mmaanf-nnaa-k0ii	-0.5163262
-3.979412	mmaanf-nnaa-k0ii-k0aa	-0.5165539
-3.979412	mmaanf-nnaass-xxll	-0.5164629
-3.979412	mmaanf-rrii-phoo	-0.5165539
-3.678382	mmaanf-t0oo-k0aa	-0.7817861
-3.201261	mmaanf-t0oo-nnxxnf	-1.433475
-3.979412	mmaanf-t0xx-nnxxnf	-0.5135835
-3.201261	mmaanf-t0xxll-vv	-1.432459
-3.979412	mmaanf-t0xxll-vv-ya-c0ii	-0.5165539
-3.979412	mmaanf-t0xxll-vvss-c0yo	-0.4720647
-3.979412	mmaanf-t0xxll-vvss-xxll	-0.5146827
-3.979412	mmaanf-t0xxnf	-0.5165084
-3.979412	mmaanf-t0xxnf-t0aa-nnxxnf	-0.5165539
-3.979412	mmaang-c0vvng-ii-c0ii	-0.5164629
-3.979412	mmaang-k0aakf-hhaa-k0oo	-0.5163717
-3.979412	mmaang-s0aang-ii	-0.5163262
-3.979412	mmaang-s0iinf-mmaanf	-0.5165539
-3.979412	mmaang-yvnf-c0aa-s0iill	-0.5162806
-3.979412	mmaanh-aa-c0yv-s0vv	-0.5165539
-3.979412	mmaanh-c0ii-mmaanf	-0.5160983
-3.979412	mmaanh-c0ii-yo	-0.4720647
-3.280442	mmaanh-ii	-1.288067
-3.678382	mmaanh-t0aa	-0.7370183
-3.076322	mmaanh-xxnf	-1.744287
-3.979412	mmaas0	-0.5165539
-3.979412	mmaas0-iiss-k0ee	-0.5165539
-3.979412	mmaas0-iiss-nnxxnf	-0.5165539
-3.678382	mmaas0-iiss-nnxxnf-c0ii	-0.737292
-3.678382	mmaas0-xxll	-0.7813304
-3.678382	mmaas0-xxnf	-0.7815127
-3.979412	mmaatf-mmyv-nnxx-rrii-rraa	-0.5165084
-3.979412	mmaath-k0oo-t0oo	-0.5165539
-3.979412	mmaath-xx-mmyvnf	-0.5165539
-3.979412	mmee-aa-rrii-ee	-0.5165084
-3.678382	mmee-ee	-0.7797277
-3.979412	mmee-mmiill-kkooch	-0.5160983
-3.979412	mmee-mmiill-p0aath-ii-t0aa	-0.4720647
-3.979412	mmees0-s0qq-c0iipf-xxll	-0.5163262
-3.979412	mmii-aanf-hhqqss-t0aa	-0.4720647
-3.979412	mmii-c0vvkf-iinf	-0.5165539
-3.979412	mmii-chiinf	-0.5165539
-3.979412	mmii-iinf-ii	-0.5165539
-3.678382	mmii-iinf-xxll	-0.7815583
-3.979412	mmii-k0aanf-ii	-0.5165539
-3.678382	mmii-kkuu-rraa-c0ii-rrxxll	-0.781695
-3.979412	mmii-kkxx-rrvv-c0yv	-0.5164173
-3.979412	mmii-kkxx-rrvv-c0yvss-vv-yo	-0.4720647
-3.678382	mmii-rrii	-0.7817861
-3.979412	mmii-s0qqng-mmuull-iinf-t0ee	-0.5164173
-3.979412	mmii-s0uull-phuumf-xxll	-0.5163262
-3.979412	mmiill-rriinf	-0.5164629
-3.979412	mmiill-vv	-0.5164629
-3.979412	mmiill-vvss-xx-nnaa	-0.5165539
-3.979412	mmiinf-c0ookf-c0vvkf-iinf	-0.5164629
-3.50229	mmiinf-c0ookf-xi	-0.9754439
-3.377352	mmiitf-k0oo	-1.139117
-3.979412	mmiith-ee	-0.5165539
-3.979412	mmiith-ee-s0vv	-0.5165539
-3.979412	mmiith-ii	-0.5165084
-3.979412	mmiith-ii-nnaa	-0.5165539
-3.979412	mmiith-p0aa-t0aakf-ii	-0.5165084
-3.979412	mmiith-p0aa-t0aakf-xxnf	-0.5163717
-3.979412	mmiith-xi	-0.5165539
-3.50229	mmiith-xx-rroo	-0.9761277
-3.979412	mmoo-c0iill-k0ee	-0.5165539
-3.979412	mmoo-k0ii-c0aang-xx-rroo	-0.5165539
-3.979412	mmoo-nnqq-k0ii-k0aa	-0.5165539
-3.979412	mmoo-nnqq-k0ii-t0oo	-0.5165539
-3.979412	mmoo-rrqq-rrxxll	-0.5165539
-3.50229	mmoo-rrxx-k0ee	-0.9760821
-3.979412	mmoo-rrxx-k0eess-t0aa	-0.5165084
-3.979412	mmoo-rrxx-k0eess-xx-nnaa	-0.5165539
-3.678382	mmoo-rrxx-k0oo	-0.781376
-3.025169	mmoo-rrxx-nnxxnf	-1.939362
-3.979412	mmoo-rrxx-nnxxnf-c0ii	-0.5163262
-3.979412	mmoo-rrxx-t0aanf	-0.5165539
-3.678382	mmoo-rrxxll	-0.7817861
-3.678382	mmoo-rrxxnf-t0aa	-0.7370183
-3.979412	mmoo-rrxxnf-t0aa-k0oo	-0.5165084
-3.979412	mmoo-rrxxpf-nnii-t0aa	-0.4720647
-3.979412	mmoo-s0vv-rrii-k0aa	-0.5165539
-3.979412	mmoo-s0xxpf	-0.5158246
-3.50229	mmoo-s0xxpf-ii	-0.9761277
-3.979412	mmoo-s0xxpf-ii-rraa-nnxxnf	-0.5164629
-3.979412	mmoo-s0xxpf-iill	-0.5162806
-3.979412	mmoo-s0xxpf-mmaanf	-0.5165084
-3.025169	mmoo-s0xxpf-xxll	-1.939225
-3.678382	mmoo-s0xxpf-xxnf	-0.7815583
-3.979412	mmoo-t0aakf-p0uull-ii	-0.5164629
-3.979412	mmoo-t0eell-rroo	-0.5140418
-3.678382	mmoo-t0uu	-0.7817406
-3.678382	mmoo-t0uu-t0xxll	-0.7817861
-3.979412	mmoo-t0xxnf	-0.5159615
-3.979412	mmoo-xx-k0oo	-0.5165084
-3.979412	mmoo-yang-ii-c0ii-mmaanf	-0.5165539
-3.979412	mmoo-yang-ii-k0uu-nnaa	-0.5165539
-3.979412	mmoo-yang-ii-t0aa	-0.4720647
-3.979412	mmoo-yang-ii-vvss-t0aa	-0.4720647
-3.979412	mmoo-yv-s0vv	-0.5165539
-3.377352	mmoo-yv-t0xxll-vvss-t0aa	-0.9097078
-3.979412	mmoo-yv-t0xxnf	-0.5165539
-3.979412	mmookf	-0.5165084
-3.979412	mmookf-ii	-0.5165084
-3.979412	mmookf-k0uu-mmvvng-ee-s0vv	-0.5165539
-3.979412	mmookf-s0oo-rrii-ee	-0.5165084
-3.50229	mmookf-s0oo-rrii-k0aa	-0.9761277
-3.377352	mmookf-s0oo-rrii-rroo	-1.139436
-3.979412	mmookf-s0oo-rrii-wa	-0.5165539
-3.979412	mmookf-s0uumf-xxll	-0.5165084
-3.979412	mmookf-t0vvll-mmii-k0aa	-0.5164173
-3.979412	mmookf-t0vvll-mmii-rrxxll	-0.5165539
-3.50229	mmookf-yokf-xxll	-0.9760821
-3.979412	mmooks-xxll	-0.5165539
-3.979412	mmooll-aass-t0aa	-0.4720647
-3.979412	mmooll-rraa-t0oo	-0.5165539
-3.979412	mmooll-rraass-s0xxpf-nnii-t0aa	-0.4720647
-3.678382	mmooll-rraass-t0aa	-0.7370183
-3.979412	mmooll-rrqq	-0.5165539
-3.979412	mmooll-rryv	-0.5160071
-3.979412	mmooll-rryv-wa	-0.5165539
-3.979412	mmoomf-p0uu-rriimf-ee	-0.5165539
-3.979412	mmoomf-ttuung-ii-rrxxll	-0.5165539
-3.979412	mmoomf-ttuung-vv-rrii-k0aa	-0.5165539
-3.979412	mmoomf-ttuung-vv-rrii-rrxxll	-0.5165084
-3.979412	mmoomf-xx-rroo	-0.5165539
-3.50229	mmoomf-xxll	-0.9760366
-3.979412	mmoong-t0aang-p0ii-chvv-rrvvmf	-0.5165539
-3.678382	mmoong-ttaang	-0.7817861
-3.678382	mmoopf-s0ii	-0.7817861
-3.979412	mmoopf-ssxxll	-0.5165539
-3.134314	mmoos0	-1.580024
-3.979412	mmoos0-hhaa-k0ii-nnaa	-0.5140418
-3.979412	mmoos0-hhaa-k0oo	-0.5165539
-3.979412	mmoos0-hhaa-nnxxnf-t0ee	-0.5162806
-3.979412	mmoos0-hhaa-yvss-t0aa	-0.4720647
-3.979412	mmoos0-hhaanf	-0.5164173
-3.979412	mmoos0-hhqq	-0.5165539
-3.979412	mmoos0-hhqqss-vv-yo	-0.4720647
-3.979412	mmoos0-t0xxll-xxnf	-0.5165539
-3.979412	mmqq-iill	-0.5165084
-3.979412	mmqq-k0oo	-0.5165539
-3.979412	mmqq-kkxxnf-hhqqss-t0aa	-0.4720647
-3.979412	mmqq-mmii	-0.5165084
-3.979412	mmqq-nnyvnf	-0.5165539
-3.377352	mmqq-uu	-1.139527
-3.979412	mmqq-uunf	-0.5165084
-3.979412	mmqqmf-t0ooll-t0vvnf	-0.5165539
-3.979412	mmqqng-c0vvmf-ii	-0.5155052
-3.979412	mmuu-c0ii-k0qq-rrxxll	-0.5162806
-3.979412	mmuu-hhaanf-hhaa-t0aa	-0.4720647
-3.979412	mmuu-k0ee-rraa-t0oo	-0.5164629
-3.979412	mmuu-mmyvng-phiill-k0wa	-0.5165539
-3.979412	mmuu-nnoonf-ee-nnxxnf	-0.5165539
-3.979412	mmuu-rrvvkf-mmuu-rrvvkf	-0.5163262
-3.979412	mmuu-rrxxph-ee-t0aa	-0.5161439
-3.979412	mmuu-rrxxph-ii	-0.5165539
-3.979412	mmuu-rryo-ee	-0.5165084
-3.678382	mmuu-rryvpf	-0.7810112
-3.979412	mmuu-s0iimf-hhii	-0.5165084
-3.377352	mmuu-s0vv-uunf	-1.139436
-3.979412	mmuu-s0vv-wv-hhaa-c0ii	-0.5165084
-3.979412	mmuu-s0vv-wv-hhaa-nnxxnf	-0.5164629
-3.979412	mmuu-s0vv-wv-rraa	-0.4720647
-3.201261	mmuu-s0xxnf	-1.432459
-3.979412	mmuu-t0vv-wv-c0ii-mmyvnf	-0.5157106
-3.979412	mmuu-t0vvmf-t0xxll-ii	-0.5165539
-3.979412	mmuu-t0vvnf-hhii-nnxxnf	-0.5165539
-3.678382	mmuu-ttuukf-ttuukf-hhaanf	-0.7817861
-3.979412	mmuu-uu	-0.5147741
-3.979412	mmuu-vv	-0.5135835
-3.678382	mmuu-vv-ya	-0.737292
-3.979412	mmuu-vvll	-0.5155509
-3.979412	mmuu-vvs0-ii-nnya-nnxxnf	-0.5165084
-3.979412	mmuu-vvs0-iinf-k0aa-rrxxll	-0.5165539
-3.678382	mmuu-vvs0-xxll	-0.7811936
-3.979412	mmuukf-c0vvng-p0aath-ii-rraa-mmyvnf	-0.5164629
-3.979412	mmuukf-xxnf	-0.5161439
-3.678382	mmuukk-vv-s0vv	-0.7817406
-3.979412	mmuukk-vvss-vv-yo	-0.4720647
-3.025169	mmuull	-1.939379
-3.979412	mmuull-c0aang-nnaanf-ii-vvss-t0aa	-0.4720647
-3.50229	mmuull-c0aang-nnaanf-xxll	-0.9740312
-3.979412	mmuull-c0iill-ii	-0.5165539
-3.979412	mmuull-c0iill-ii-rraa-nnxxnf	-0.5159159
-3.979412	mmuull-c0iill-xi	-0.5165539
-3.979412	mmuull-c0iill-xxll	-0.5165539
-3.979412	mmuull-c0iipf-ii	-0.5165539
-3.280442	mmuull-ee	-1.288659
-3.280442	mmuull-ii	-1.288705
-3.979412	mmuull-ii-c0ii-yo	-0.4720647
-3.979412	mmuull-iinf	-0.5146827
-3.979412	mmuull-k0ii-k0aa	-0.5165539
-3.979412	mmuull-k0ii-s0xxlk-ee	-0.5165084
-3.979412	mmuull-k0oo-k0ii	-0.5165084
-3.979412	mmuull-k0oo-k0ii-rrxxll	-0.5163262
-3.979412	mmuull-k0vvnf	-0.5161895
-3.979412	mmuull-k0vvnf-ii-rraanf	-0.5165084
-3.377352	mmuull-k0vvnf-xxll	-1.139436
-3.979412	mmuull-kkoo-rrxxll	-0.5165539
-3.678382	mmuull-mmaanf	-0.7817406
-3.979412	mmuull-ppuu-rrii-k0qq-rrxxll	-0.5165084
-3.50229	mmuull-rroonf	-0.9758999
-3.979412	mmuull-rroonf-ii-k0vv-nnii-wa	-0.5164173
-3.979412	mmuull-rrvv-nnaass-t0aa	-0.4720647
-3.979412	mmuull-rrvv-s0vvss-s0xxpf-nnii-t0aa	-0.4720647
-3.979412	mmuull-s0aall-xxll	-0.5162806
-3.979412	mmuull-s0oo-rrii-rrxxll	-0.5165539
-3.979412	mmuull-s0qq-aall-k0wa	-0.5165539
-3.979412	mmuull-s0qq-aall-xi	-0.5165084
-3.979412	mmuull-s0qq-aall-xxll	-0.5165539
-3.979412	mmuull-s0uu-k0vvnf-xx-rroo	-0.5165539
-3.979412	mmuull-ssiinf-mmuull-ssiinf	-0.5165539
-3.979412	mmuull-t0oong-ii-rrxxll	-0.5165539
-3.979412	mmuull-t0xxpf-nnii-t0aa	-0.4720647
-3.979412	mmuull-vvss-t0aa	-0.4720647
-3.678382	mmuull-vvss-vv-yo	-0.7370183
-3.076322	mmuull-xxll	-1.745575
-3.979412	mmuull-xxnf	-0.5165539
-3.979412	mmuunf	-0.5165539
-3.979412	mmuunf-c0ee-wa	-0.5165539
-3.979412	mmuunf-c0ii-rrxx-k0oo	-0.5165539
-3.979412	mmuunf-hhaakf-c0vvkf-iinf	-0.5165539
-3.50229	mmuunf-hhaakf-ee	-0.9761277
-3.979412	mmuunf-hhaakf-ee-s0vv	-0.5163717
-3.979412	mmuunf-hhaakf-ee-s0vv-nnxxnf	-0.5165539
-3.979412	mmuunf-hhaakf-ii	-0.5160983
-3.979412	mmuunf-hhaakf-k0wa	-0.5165539
-3.678382	mmuunf-hhaakf-xi	-0.7813304
-3.979412	mmuunf-hhaakf-xxnf	-0.5164173
-3.979412	mmuunf-mmqqng	-0.5165539
-3.979412	mmuunf-mmyvng-xi	-0.5165539
-3.979412	mmuunf-t0uung-aa	-0.5161895
-3.50229	mmuunf-t0xxkf	-0.9756263
-3.979412	mmuunf-thvvkf-xxll	-0.5165539
-3.280442	mmuunf-xxll	-1.28814
-3.979412	mmuung-khxxll-hhqq-c0yvss-t0aa	-0.4720647
-3.979412	mmuus0	-0.5165539
-3.979412	mmuutf-hhii-nnxxnf	-0.5161439
-3.979412	mmuutf-k0ee	-0.5165084
-3.979412	mmvv-c0ii-aanh-aa	-0.5140418
-3.979412	mmvv-rrii-ee	-0.5165539
-3.979412	mmvv-rrii-rrxxll	-0.5165539
-3.979412	mmvv-rrii-thvvll-k0wa-t0oo	-0.5163717
-3.979412	mmvv-s0xxmf-p0aapf-p0oo-t0aa	-0.5165539
-3.979412	mmvvkf-c0ii-mmaanf	-0.5165539
-3.979412	mmvvkf-ii-k0aa	-0.5165539
-3.979412	mmvvkf-ii-k0ii-k0aa	-0.5160071
-3.678382	mmvvkf-ii-rrxxll	-0.7815583
-3.979412	mmvvkf-k0eess-t0aa	-0.4720647
-3.979412	mmvvkf-k0ii	-0.5161439
-3.979412	mmvvkf-k0ii-t0oo	-0.5164629
-3.377352	mmvvkf-k0oo	-1.139162
-3.979412	mmvvkf-k0oonf	-0.5165084
-3.979412	mmvvkf-k0uu-rrvvng-ii-k0aa	-0.5165539
-3.377352	mmvvkf-nnxxnf	-1.138706
-3.50229	mmvvkf-nnxxnf-t0aa	-0.9318422
-3.979412	mmvvkf-vv	-0.5165539
-3.979412	mmvvkf-vv-s0vv	-0.5165084
-3.979412	mmvvkf-vvss-nnxxnf-t0ee	-0.5165084
-3.979412	mmvvkf-vvss-t0aa	-0.4720647
-3.979412	mmvvkf-vvss-vvss-t0aa	-0.4720647
-3.979412	mmvvkf-xx-mmyvnf-s0vv	-0.5162806
-3.678382	mmvvkf-xxll	-0.7810568
-3.979412	mmvvkf-xxll-kkaa	-0.5165539
-3.979412	mmvvkf-xxll-kkee	-0.5163262
-3.979412	mmvvkf-xxnf	-0.5165539
-3.979412	mmvvll-c0ii	-0.5163717
-3.678382	mmvvll-rrii	-0.7817861
-3.979412	mmvvll-rrii-s0vv	-0.5163717
-3.979412	mmvvll-vv-c0ii-mmyvnf	-0.5165084
-3.979412	mmvvll-vv-c0yvss-t0aa	-0.4720647
-3.979412	mmvvll-vvss-t0aa	-0.4720647
-3.979412	mmvvmf-chuu-vv	-0.5165084
-3.979412	mmvvmf-chuu-vvss-t0aa	-0.4720647
-3.50229	mmvvnf	-0.974256
-3.979412	mmvvnf-c0ii-rrxxll	-0.5165539
-3.201261	mmvvnf-c0vv	-1.432596
-3.979412	mmvvng-chvvng-hhii	-0.5165539
-3.979412	mmvvng-s0vvkf	-0.5165539
-3.678382	mmwv	-0.7810568
-3.979412	mmwv-rraa-k0oo	-0.4720647
-3.979412	mmwvll-kkaa	-0.4720647
-3.979412	mmwvpf-nnii-kkaa	-0.5147741
-3.979412	mmyo-s0oo-ee-s0vv	-0.4720647
-3.678382	mmyv-chiill	-0.7816039
-3.678382	mmyv-chiill-ccqq	-0.7814216
-3.979412	mmyv-chiill-ssiikf	-0.5165539
-3.201261	mmyvch	-1.432596
-3.979412	mmyvch-mmaanf	-0.5165539
-3.979412	mmyvch-mmyvch	-0.5163717
-3.979412	mmyvkf-k0aamf-nnxxnf	-0.5164173
-3.979412	mmyvkf-mmaanf	-0.5165539
-3.678382	mmyvkf-xxll	-0.7817406
-3.979412	mmyvll-s0ii-wa	-0.5165539
-3.678382	mmyvnf-ee-s0vv	-0.7814164
-3.979412	mmyvnf-ii	-0.5164173
-3.979412	mmyvng-ii	-0.5165539
-3.979412	mmyvng-ssiikf	-0.5164173
-3.50229	nnaa	-0.9757175
-3.979412	nnaa-aa-k0aa	-0.5165084
-3.979412	nnaa-c0ii	-0.5161439
-3.979412	nnaa-chvv-rrvvmf	-0.5165084
-3.979412	nnaa-ii	-0.516235
-3.678382	nnaa-k0aa	-0.7817861
-3.979412	nnaa-k0aa-k0vv-rraa	-0.5165539
-3.979412	nnaa-k0aa-nnxxnf	-0.5165084
-3.678382	nnaa-k0aa-rryv-nnxxnf	-0.7817861
-3.979412	nnaa-k0aa-s0iinf	-0.5164629
-3.979412	nnaa-k0aa-t0aa-k0aa	-0.5165539
-3.979412	nnaa-k0aanf	-0.5165539
-3.979412	nnaa-k0aanf-t0aa	-0.4720647
-3.979412	nnaa-k0aath-ii	-0.5165539
-3.979412	nnaa-k0wi-nnxxnf	-0.5164629
-3.979412	nnaa-k0wi-rrxxll	-0.5165084
-3.979412	nnaa-kkuu-vv	-0.5165084
-3.979412	nnaa-kkuu-vvss-nnaa-p0uu-c0ii	-0.4720647
-3.50229	nnaa-mmuu	-0.9759911
-3.678382	nnaa-mmuu-ee	-0.7817406
-3.979412	nnaa-mmuu-hhaa-rrvv	-0.5163262
-3.377352	nnaa-mmuu-kkuunf	-1.139609
-3.678382	nnaa-mmuu-kkuunf-ee-k0ee	-0.7815127
-3.280442	nnaa-mmuu-kkuunf-ii	-1.288203
-3.50229	nnaa-mmuu-kkuunf-xi	-0.9760821
-3.678382	nnaa-mmuu-kkuunf-xxll	-0.7817861
-2.833284	nnaa-mmuu-kkuunf-xxnf	-1.578739
-3.979412	nnaa-mmuu-rraa-c0ii	-0.5165539
-3.377352	nnaa-mmuu-rrxxll	-1.139436
-3.979412	nnaa-mmuu-thoo-mmaakf-t0xxll-xxll	-0.5164173
-3.979412	nnaa-mmuu-wa	-0.5160983
-3.979412	nnaa-mmuu-wi-ee	-0.5165539
-3.979412	nnaa-mmuu-wi-rroo	-0.5165084
-3.979412	nnaa-mmuull	-0.5165539
-3.979412	nnaa-mmuus0-iiph-ii	-0.5165084
-3.979412	nnaa-mmuus0-k0aa-c0ii-ee	-0.5165539
-3.979412	nnaa-mmuus0-kkuunf-xxnf	-0.5161439
-3.979412	nnaa-mmvv-c0ii	-0.5165084
-3.678382	nnaa-mmyvnf	-0.7816495
-3.979412	nnaa-nnii	-0.5165539
-3.979412	nnaa-nnuu-vv	-0.5164629
-2.775292	nnaa-nnxxnf	-1.741426
-3.50229	nnaa-oo-c0ii	-0.9757175
-3.979412	nnaa-oo-c0ii-nnxxnf	-0.5165084
-3.979412	nnaa-oo-mmyvnf	-0.5163717
-3.979412	nnaa-oo-nnvv-rraa	-0.4720647
-3.50229	nnaa-oo-nnxxnf	-0.9739815
-3.979412	nnaa-oo-rryv-k0oo	-0.5165539
-3.979412	nnaa-oo-t0xxs0	-0.4720647
-3.979412	nnaa-ooll	-0.5164173
-3.50229	nnaa-oonf	-0.9761277
-3.979412	nnaa-oonf-t0aa	-0.5165539
-3.979412	nnaa-p0ii-nnxxnf	-0.5162806
-3.979412	nnaa-p0ii-rrxxll	-0.5165539
-3.979412	nnaa-p0oo-t0aa	-0.5155509
-3.979412	nnaa-phuull-k0vv-rrii-mmyv	-0.5160983
-3.979412	nnaa-rraa-ee-s0vvnf	-0.5164629
-3.979412	nnaa-rraa-rroo	-0.5165539
-3.979412	nnaa-rrxx-t0aa-k0aa	-0.5165539
-3.678382	nnaa-rrxxll	-0.7816495
-3.979412	nnaa-s0vv	-0.5165539
-3.979412	nnaa-s0vvnf-t0aa	-0.4720647
-3.979412	nnaa-s0vvss-s0xxpf-nnii-t0aa	-0.4720647
-3.678382	nnaa-t0oo	-0.7815127
-3.979412	nnaa-t0oo-rrookf	-0.5161895
-3.979412	nnaa-t0vv-nnii	-0.5164173
-3.678382	nnaa-thaa-nnaa	-0.7805546
-3.979412	nnaa-thaa-nnaa-c0ii	-0.5161439
-3.979412	nnaa-thaa-nnaa-nnxxnf	-0.5165539
-3.979412	nnaa-thaa-nnaa-rrii-rraa	-0.4720647
-3.979412	nnaa-thaa-nnaanf	-0.5140418
-3.979412	nnaa-thaa-nnaanf-t0aa	-0.4720647
